{"learner":{"attributes":{"best_iteration":"76","best_ntree_limit":"77","scikit_learn":"{\"use_label_encoder\": false, \"n_estimators\": 100, \"objective\": \"binary:logistic\", \"max_depth\": null, \"max_leaves\": null, \"max_bin\": null, \"grow_policy\": null, \"learning_rate\": null, \"verbosity\": null, \"booster\": null, \"tree_method\": \"hist\", \"gamma\": null, \"min_child_weight\": null, \"max_delta_step\": null, \"subsample\": null, \"sampling_method\": null, \"colsample_bytree\": null, \"colsample_bylevel\": null, \"colsample_bynode\": null, \"reg_alpha\": null, \"reg_lambda\": null, \"scale_pos_weight\": 773.7010836478753, \"base_score\": null, \"missing\": NaN, \"num_parallel_tree\": null, \"random_state\": 42, \"n_jobs\": null, \"monotone_constraints\": null, \"interaction_constraints\": null, \"importance_type\": null, \"gpu_id\": null, \"validate_parameters\": null, \"predictor\": null, \"enable_categorical\": false, \"feature_types\": null, \"max_cat_to_onehot\": null, \"max_cat_threshold\": null, \"eval_metric\": \"aucpr\", \"early_stopping_rounds\": null, \"callbacks\": null, \"classes_\": [0, 1], \"n_classes_\": 2, \"evals_result_\": {\"validation_0\": {\"aucpr\": [0.801018644924335, 0.8130889826426555, 0.8307408802125378, 0.8407175988228301, 0.8486219823413177, 0.8522664479291893, 0.8775979670397229, 0.8969705818710055, 0.9058576373321151, 0.9079046036630934, 0.9087368757497941, 0.9178723216681324, 0.9221004858284187, 0.9275885322177448, 0.9325935466005607, 0.934173863089009, 0.9303592093262368, 0.9312082893217672, 0.9330746295154121, 0.9390388306518591, 0.9396394214604875, 0.9416918004033693, 0.9423290074283367, 0.9459674056717707, 0.9446725290885378, 0.9448054686294951, 0.9448054798071029, 0.9417575511675279, 0.944225087625502, 0.944533152339332, 0.9488039265315296, 0.9483524707369746, 0.9501996227202126, 0.9510046178826186, 0.9518654424503905, 0.9529176153411653, 0.9501475095478995, 0.9499362673905778, 0.9495451731824975, 0.9502083935728165, 0.9509817393016308, 0.9511558766374228, 0.9508143499710888, 0.9514403520705311, 0.9546920413106824, 0.9547172895884142, 0.9549711055674392, 0.9549712686208373, 0.954885990623654, 0.9551173735690285, 0.9556060643652956, 0.9564509738838015, 0.9564509738838015, 0.9563145440892055, 0.9581845069274676, 0.9581845069274676, 0.9585535489170339, 0.9586983484670554, 0.9605984807833209, 0.9622463773982554, 0.9613338038819526, 0.9614111218366882, 0.9614111218366882, 0.962324390618436, 0.9627007028683643, 0.9627019355580533, 0.9630196121096806, 0.9630196121096806, 0.9624740794701298, 0.9616682778035972, 0.9618985439959677, 0.9621788308063574, 0.9621100133062327, 0.9629278870147192, 0.9629963365696044, 0.9631003418960079, 0.963646763979476, 0.9632693279136203, 0.9632709935440434, 0.9633956832721817, 0.9633717687677215, 0.963556513895748, 0.9626783659241049, 0.9626783659241049, 0.9629931760671236, 0.9636204957230905, 0.9636133117218801]}}, \"_estimator_type\": \"classifier\"}"},"feature_names":[],"feature_types":[],"gradient_booster":{"model":{"gbtree_model_param":{"num_parallel_tree":"1","num_trees":"77","size_leaf_vector":"0"},"tree_info":[0,0,0,0,0,0,0,0,0,0,0,0,0,0,0,0,0,0,0,0,0,0,0,0,0,0,0,0,0,0,0,0,0,0,0,0,0,0,0,0,0,0,0,0,0,0,0,0,0,0,0,0,0,0,0,0,0,0,0,0,0,0,0,0,0,0,0,0,0,0,0,0,0,0,0,0,0],"trees":[{"base_weights":[-4.9356827E-1,-1.9738858E0,1.2421393E0,-1.11345E0,-1.9787073E0,1.7754669E0,-5.999955E-1,1.980165E0,-5.998737E-1,-1.8977983E0,-1.9932964E0,1.8462328E0,-1.8979034E0,-5.172414E-1,5.995572E-1,-1.9768481E0,-1.7779971E0,-1.9976242E0,-1.982892E0,1.6524583E0,1.9719063E0,-1.948188E0,1.7760743E0,-1.9919697E0,-1.5864512E0,-1.2887251E0,-1.9108307E0,-5.9999865E-1,-1.9929737E0,-1.8217875E0,-1.9855098E0,1.7185726E0,-5.998912E-1,1.8853085E0,1.9952747E0,-5.9995794E-1,-9.1839397E-1,5.953769E-1,-5.489362E-1,-5.797303E-1,-5.99993E-1,-2.5723732E-1,-5.9974915E-1,3.3452785E-1,-5.7915473E-1,-4.4122654E-1,-5.770607E-1,-5.9183973E-1,-5.9878796E-1,-5.9984726E-1,-5.299364E-2,-5.8157235E-1,-5.9797287E-1,5.934852E-1,4.435171E-1,5.8223313E-1,-5.995806E-1,5.9102815E-1,5.9944385E-1,1.3776691E-1,-5.9851027E-1],"categories":[],"categories_nodes":[],"categories_segments":[],"categories_sizes":[],"default_left":[0,0,0,0,0,0,0,0,0,0,0,0,0,0,0,0,0,0,0,0,0,0,0,0,0,0,0,0,0,0,0,0,0,0,0,0,0,0,0,0,0,0,0,0,0,0,0,0,0,0,0,0,0,0,0,0,0,0,0,0,0],"id":0,"left_children":[1,3,5,7,9,11,-1,13,-1,15,17,19,21,-1,-1,23,25,27,29,31,33,35,37,39,41,43,45,-1,47,49,51,53,-1,55,57,-1,59,-1,-1,-1,-1,-1,-1,-1,-1,-1,-1,-1,-1,-1,-1,-1,-1,-1,-1,-1,-1,-1,-1,-1,-1],"loss_changes":[5.2191785E6,4.5465E3,1.6167056E6,1.6756922E4,1.283E3,2.0871925E5,0E0,9.601953E1,0E0,1.5739375E3,3.75E1,1.918E4,2.8071094E3,0E0,0E0,5.891875E2,4.3016875E3,3.25E0,1.11E2,7.48325E4,9.6325E2,7.948086E2,1.5808612E2,4.21875E1,1.1255059E3,2.182243E4,2.8835938E2,0E0,9.375E0,1.2721396E3,9.3E1,1.8984812E4,0E0,2.188325E4,2.325E1,0E0,1.0646289E3,0E0,0E0,0E0,0E0,0E0,0E0,0E0,0E0,0E0,0E0,0E0,0E0,0E0,0E0,0E0,0E0,0E0,0E0,0E0,0E0,0E0,0E0,0E0,0E0],"parents":[2147483647,0,0,1,1,2,2,3,3,4,4,5,5,7,7,9,9,10,10,11,11,12,12,15,15,16,16,17,17,18,18,19,19,20,20,21,21,22,22,23,23,24,24,25,25,26,26,28,28,29,29,30,30,31,31,33,33,34,34,36,36],"right_children":[2,4,6,8,10,12,-1,14,-1,16,18,20,22,-1,-1,24,26,28,30,32,34,36,38,40,42,44,46,-1,48,50,52,54,-1,56,58,-1,60,-1,-1,-1,-1,-1,-1,-1,-1,-1,-1,-1,-1,-1,-1,-1,-1,-1,-1,-1,-1,-1,-1,-1,-1],"split_conditions":[0E0,-9.696292E5,1E0,7.5766506E0,3.9E1,4.5474735E-13,-5.999955E-1,1.34007015E1,-5.998737E-1,1E0,1.2215556E1,1.2357366E1,1.3699841E1,-5.172414E-1,5.995572E-1,1.3839274E1,1.0726334E1,1E0,1.2228528E1,1.2371451E1,1.29587965E1,2.1038694E5,-5.116354E5,-3.8854844E5,-2.1827873E-10,3.9318256E0,-5.0627778E5,-5.9999865E-1,7.5766506E0,1E0,7.5766506E0,-1.0000001E-2,-5.998912E-1,1.297854E1,1.3196184E1,-5.9995794E-1,2.7498247E5,5.953769E-1,-5.489362E-1,-5.797303E-1,-5.99993E-1,-2.5723732E-1,-5.9974915E-1,3.3452785E-1,-5.7915473E-1,-4.4122654E-1,-5.770607E-1,-5.9183973E-1,-5.9878796E-1,-5.9984726E-1,-5.299364E-2,-5.8157235E-1,-5.9797287E-1,5.934852E-1,4.435171E-1,5.8223313E-1,-5.995806E-1,5.9102815E-1,5.9944385E-1,1.3776691E-1,-5.9851027E-1],"split_indices":[8,9,7,3,0,8,0,2,0,4,1,1,1,0,0,1,3,4,1,2,1,9,9,9,9,2,8,0,3,5,3,9,0,2,1,0,9,0,0,0,0,0,0,0,0,0,0,0,0,0,0,0,0,0,0,0,0,0,0,0,0],"split_type":[0,0,0,0,0,0,0,0,0,0,0,0,0,0,0,0,0,0,0,0,0,0,0,0,0,0,0,0,0,0,0,0,0,0,0,0,0,0,0,0,0,0,0,0,0,0,0,0,0,0,0,0,0,0,0,0,0,0,0,0,0],"sum_hessian":[2.0312825E6,1.096295E6,9.349875E5,6.110227E3,1.0901848E6,8.0290975E5,1.3207775E5,1.3602269E3,4.75E3,1.6656586E5,9.236189E5,7.877349E5,1.5174851E4,6.25E0,1.3539769E3,1.0034102E5,6.622483E4,6.521561E5,2.714628E5,3.099072E5,4.7782772E5,1.4970425E4,2.0442528E2,9.659542E4,3.7456006E3,1.4142778E4,5.208205E4,4.31644E5,2.205121E5,4.3516753E3,2.6711112E5,3.043972E5,5.51E3,1.0155839E5,3.762693E5,1.425425E4,7.161753E2,1.9367528E2,1.075E1,1.1479675E4,8.511575E4,1.3551006E3,2.3905E3,2.9801033E3,1.1162675E4,1.4646753E3,5.0617375E4,2.8516426E4,1.9199567E5,3.92725E3,4.244253E2,3.7818777E4,2.2929234E5,1.4624931E5,1.5814788E5,1.0012889E5,1.4295E3,3.8586203E4,3.3768312E5,3.144253E2,4.0175E2],"tree_param":{"num_deleted":"0","num_feature":"10","num_nodes":"61","size_leaf_vector":"0"}},{"base_weights":[-3.810758E-1,-1.5265757E0,9.531014E-1,-8.6226547E-1,-1.530294E0,1.3608999E0,-4.646404E-1,1.5330458E0,-4.6455744E-1,-1.1669513E0,-1.532846E0,1.4149761E0,-1.467156E0,-4.089432E-1,4.6434167E-1,-4.675179E-1,-6.427298E-1,-1.4760343E0,-1.5426658E0,1.2406136E0,1.521545E0,-1.5060309E0,1.3721337E0,1.0318148E0,-4.6831417E-1,-1.5444825E0,-1.394073E0,-1.5334585E0,-1.5486349E0,1.2993199E0,-1.7322313E0,1.4158591E0,1.5387582E0,-4.6461484E-1,-6.8701726E-1,4.6111792E-1,-4.3016312E-1,5.566519E-1,-4.6655342E-1,-4.659045E-1,-3.6336923E-1,-3.331523E-1,-4.3859667E-1,-4.5551568E-1,-4.6484178E-1,-4.6500996E-1,-4.5580184E-1,4.586181E-1,3.2883927E-1,-7.69425E-1,-4.6455535E-1,4.5244348E-1,-5.91904E-1,4.518726E-1,4.641279E-1,9.2319965E-2,-5.0689083E-1],"categories":[],"categories_nodes":[],"categories_segments":[],"categories_sizes":[],"default_left":[0,0,0,0,0,0,0,0,0,0,0,0,0,0,0,0,0,0,0,0,0,0,0,0,0,0,0,0,0,0,0,0,0,0,0,0,0,0,0,0,0,0,0,0,0,0,0,0,0,0,0,0,0,0,0,0,0],"id":1,"left_children":[1,3,5,7,9,11,-1,13,-1,15,17,19,21,-1,-1,-1,23,25,27,29,31,33,35,37,-1,39,41,43,45,47,49,51,53,-1,55,-1,-1,-1,-1,-1,-1,-1,-1,-1,-1,-1,-1,-1,-1,-1,-1,-1,-1,-1,-1,-1,-1],"loss_changes":[2.8531828E6,2.4795E3,8.799096E5,9.19641E3,9.2425E2,1.13408625E5,0E0,5.537671E1,0E0,1.4294814E3,5.515E2,1.351875E4,1.5378496E3,0E0,0E0,0E0,4.5869277E3,8.180625E2,4.3875E1,4.8176312E4,8.19375E2,4.7881055E2,8.941858E1,2.2545342E3,0E0,2.2464062E2,1.2799688E3,7.8E1,1.8625E1,1.2615781E4,8.136377E2,1.9788656E4,1.029375E2,0E0,6.804708E2,0E0,0E0,0E0,0E0,0E0,0E0,0E0,0E0,0E0,0E0,0E0,0E0,0E0,0E0,0E0,0E0,0E0,0E0,0E0,0E0,0E0,0E0],"parents":[2147483647,0,0,1,1,2,2,3,3,4,4,5,5,7,7,9,9,10,10,11,11,12,12,16,16,17,17,18,18,19,19,20,20,21,21,22,22,23,23,25,25,26,26,27,27,28,28,29,29,30,30,31,31,32,32,34,34],"right_children":[2,4,6,8,10,12,-1,14,-1,16,18,20,22,-1,-1,-1,24,26,28,30,32,34,36,38,-1,40,42,44,46,48,50,52,54,-1,56,-1,-1,-1,-1,-1,-1,-1,-1,-1,-1,-1,-1,-1,-1,-1,-1,-1,-1,-1,-1,-1,-1],"split_conditions":[0E0,-9.696292E5,1E0,7.5766506E0,9E0,4.5474735E-13,-4.646404E-1,1.34007015E1,-4.6455744E-1,1.17919445E1,3.9E1,1.2253884E1,1.3699841E1,-4.089432E-1,4.6434167E-1,-4.675179E-1,9.346207E0,-1E-2,3.9318256E0,1.2260022E1,1.26828575E1,2.1038694E5,-5.116354E5,8.443332E0,-4.6831417E-1,1E0,1.0726334E1,2.32E2,1.3151365E1,-1.0000001E-2,1.2371451E1,1.2698517E1,1.3196184E1,-4.6461484E-1,9.094947E-12,4.6111792E-1,-4.3016312E-1,5.566519E-1,-4.6655342E-1,-4.659045E-1,-3.6336923E-1,-3.331523E-1,-4.3859667E-1,-4.5551568E-1,-4.6484178E-1,-4.6500996E-1,-4.5580184E-1,4.586181E-1,3.2883927E-1,-7.69425E-1,-4.6455535E-1,4.5244348E-1,-5.91904E-1,4.518726E-1,4.641279E-1,9.2319965E-2,-5.0689083E-1],"split_indices":[8,9,7,3,0,8,0,2,0,1,0,1,1,0,0,0,3,9,2,2,1,9,9,2,0,5,3,0,1,9,2,2,1,0,8,0,0,0,0,0,0,0,0,0,0,0,0,0,0,0,0,0,0,0,0,0,0],"split_type":[0,0,0,0,0,0,0,0,0,0,0,0,0,0,0,0,0,0,0,0,0,0,0,0,0,0,0,0,0,0,0,0,0,0,0,0,0,0,0,0,0,0,0,0,0,0,0,0,0,0,0,0,0,0,0,0,0],"sum_hessian":[1.8668978E6,1.0044744E6,8.624233E5,5.5921445E3,9.9888225E5,7.4155394E5,1.2086939E5,1.2450841E3,4.3470605E3,6.9700884E3,9.919122E5,7.2764094E5,1.3912961E4,5.8499284E0,1.2392341E3,3.9892793E3,2.980809E3,1.4620731E5,8.457048E5,2.7602922E5,4.5161175E5,1.3725504E4,1.8745656E2,1.0556733E3,1.9251357E3,7.966178E4,6.654554E4,3.327251E5,5.1297975E5,2.7068444E5,5.344781E3,6.326362E4,3.8834812E5,1.304475E4,6.807537E2,1.7747739E2,9.979174E0,8.009392E2,2.5473415E2,7.766947E4,1.9923116E3,1.2861775E4,5.368376E4,1.714481E5,1.61277E5,4.895621E5,2.3417643E4,1.2713658E5,1.4354788E5,9.6388116E2,4.3809E3,6.158704E4,1.6765826E3,7.927174E4,3.0907638E5,3.420656E2,3.3868808E2],"tree_param":{"num_deleted":"0","num_feature":"10","num_nodes":"57","size_leaf_vector":"0"}},{"base_weights":[-3.2847813E-1,-1.3201894E0,8.101699E-1,-7.4864954E-1,-1.3233773E0,1.1542135E0,-4.0345204E-1,1.3304111E0,-4.0336588E-1,-1.2466584E0,-1.3374774E0,1.199801E0,-1.2668625E0,-3.4993795E-1,4.0314204E-1,-1.3233736E0,-1.1342658E0,-1.3275826E0,-1.3439054E0,9.501043E-1,1.289638E0,-1.300396E0,1.1855211E0,-5.2331185E-1,-1.3323488E0,-7.4873567E-1,-1.2479092E0,-1.3390424E0,-1.295972E0,-4.036493E-1,-1.3107289E0,1.0596844E0,-2.6489148E0,1.1868294E0,1.3333538E0,-4.0342548E-1,-5.366382E-1,3.9958432E-1,-3.6941558E-1,1.6069162E-1,-4.082439E-1,-4.0385792E-1,-3.7641305E-1,3.1078485E-1,-3.964419E-1,-2.3232639E-1,-3.7873322E-1,-4.0445742E-1,-3.9896557E-1,4.6115214E-1,-3.9498386E-1,-4.0503737E-1,1.21967144E-1,3.9645755E-1,2.535325E-1,-9.567187E-1,-4.3133095E-1,3.723685E-1,-4.5282134E-1,3.832643E-1,4.0207398E-1,1.1804227E-1,-4.267377E-1],"categories":[],"categories_nodes":[],"categories_segments":[],"categories_sizes":[],"default_left":[0,0,0,0,0,0,0,0,0,0,0,0,0,0,0,0,0,0,0,0,0,0,0,0,0,0,0,0,0,0,0,0,0,0,0,0,0,0,0,0,0,0,0,0,0,0,0,0,0,0,0,0,0,0,0,0,0,0,0,0,0,0,0],"id":2,"left_children":[1,3,5,7,9,11,-1,13,-1,15,17,19,21,-1,-1,23,25,27,29,31,33,35,37,39,41,43,45,47,49,-1,51,53,55,57,59,-1,61,-1,-1,-1,-1,-1,-1,-1,-1,-1,-1,-1,-1,-1,-1,-1,-1,-1,-1,-1,-1,-1,-1,-1,-1,-1,-1],"loss_changes":[1.7749279E6,1.52975E3,5.4250375E5,5.7779004E3,9.02E2,6.964256E4,0E0,3.632251E1,0E0,1.117E3,4.325E1,1.389125E4,9.605742E2,0E0,0E0,5.5290625E2,2.3050469E3,9.89375E1,2.0875E1,6.462922E4,2.0454375E3,3.890332E2,5.7497375E1,7.606941E2,8.0265625E1,1.2251881E4,2.7876953E2,1.53125E1,4.329453E3,0E0,1.3283359E3,8.933781E3,3.1631562E3,1.9933531E4,1.211875E2,0E0,5.222169E2,0E0,0E0,0E0,0E0,0E0,0E0,0E0,0E0,0E0,0E0,0E0,0E0,0E0,0E0,0E0,0E0,0E0,0E0,0E0,0E0,0E0,0E0,0E0,0E0,0E0,0E0],"parents":[2147483647,0,0,1,1,2,2,3,3,4,4,5,5,7,7,9,9,10,10,11,11,12,12,15,15,16,16,17,17,18,18,19,19,20,20,21,21,22,22,23,23,24,24,25,25,26,26,27,27,28,28,30,30,31,31,32,32,33,33,34,34,36,36],"right_children":[2,4,6,8,10,12,-1,14,-1,16,18,20,22,-1,-1,24,26,28,30,32,34,36,38,40,42,44,46,48,50,-1,52,54,56,58,60,-1,62,-1,-1,-1,-1,-1,-1,-1,-1,-1,-1,-1,-1,-1,-1,-1,-1,-1,-1,-1,-1,-1,-1,-1,-1,-1,-1],"split_conditions":[0E0,-9.696292E5,1E0,7.5766506E0,3.9E1,4.5474735E-13,-4.0345204E-1,1.34007015E1,-4.0336588E-1,1E0,3.9318256E0,1.163048E1,1.3699841E1,-3.4993795E-1,4.0314204E-1,-1.7857341E6,1.0726334E1,1.2215556E1,1.3151365E1,1.1642268E1,1.271598E1,2.1038694E5,-5.116354E5,-2.1827873E-10,1E0,3.9318256E0,-5.0627778E5,2.3E2,7.5766506E0,-4.036493E-1,1.3191471E1,-1.0000001E-2,1.2260022E1,1.2744602E1,1.2985291E1,-4.0342548E-1,2.7498247E5,3.9958432E-1,-3.6941558E-1,1.6069162E-1,-4.082439E-1,-4.0385792E-1,-3.7641305E-1,3.1078485E-1,-3.964419E-1,-2.3232639E-1,-3.7873322E-1,-4.0445742E-1,-3.9896557E-1,4.6115214E-1,-3.9498386E-1,-4.0503737E-1,1.21967144E-1,3.9645755E-1,2.535325E-1,-9.567187E-1,-4.3133095E-1,3.723685E-1,-4.5282134E-1,3.832643E-1,4.0207398E-1,1.1804227E-1,-4.267377E-1],"split_indices":[8,9,7,3,0,8,0,2,0,4,2,1,1,0,0,8,3,1,1,2,1,9,9,9,5,2,8,0,3,0,2,9,2,2,1,0,9,0,0,0,0,0,0,0,0,0,0,0,0,0,0,0,0,0,0,0,0,0,0,0,0,0,0],"split_type":[0,0,0,0,0,0,0,0,0,0,0,0,0,0,0,0,0,0,0,0,0,0,0,0,0,0,0,0,0,0,0,0,0,0,0,0,0,0,0,0,0,0,0,0,0,0,0,0,0,0,0,0,0,0,0,0,0,0,0,0,0,0,0],"sum_hessian":[1.5718298E6,8.401215E5,7.3170825E5,4.661218E3,8.3546025E5,6.309746E5,1.0073358E5,1.0381077E3,3.62311E3,1.2972434E5,7.0573594E5,6.193139E5,1.1660802E4,5.080352E0,1.0330273E3,7.709285E4,5.2631496E4,2.7800272E5,4.277332E5,1.6386703E5,4.554468E5,1.1503968E4,1.5683376E2,8.55905E2,7.6236945E4,1.1983976E4,4.0647523E4,2.0400364E5,7.399907E4,4.0810794E5,1.9625254E4,1.5902584E5,4.8411885E3,1.3589155E5,3.1955525E5,1.0871821E4,6.3214624E2,1.4829813E2,8.535629E0,3.781395E2,4.7776556E2,6.4686086E4,1.1550856E4,2.911318E3,9.072657E3,1.2122231E3,3.9435297E4,1.01975234E5,1.02028414E5,5.346898E2,7.346438E4,1.9185344E4,4.3990945E2,7.162226E4,8.740359E4,3.3469016E3,1.4942871E3,1.3320456E5,2.6869792E3,3.5150973E4,2.8440428E5,3.0863504E2,3.235112E2],"tree_param":{"num_deleted":"0","num_feature":"10","num_nodes":"63","size_leaf_vector":"0"}},{"base_weights":[-2.971094E-1,-1.2021275E0,7.1923894E-1,-6.848246E-1,-1.2050004E0,1.0210769E0,-3.6910504E-1,1.2162278E0,-3.690022E-1,-1.1186521E0,-1.221128E0,1.0610038E0,-1.1512972E0,-3.1084934E-1,3.6873496E-1,-1.2020657E0,-9.998382E-1,-1.2092984E0,-1.2288399E0,8.329029E-1,1.1804856E0,-1.181736E0,1.0772307E0,-1.2119776E0,-4.2207614E-1,-6.4288235E-1,-1.1098498E0,-1.1878281E0,-3.6966658E-1,-1.1939533E0,-3.6930764E-1,9.135561E-1,-1.9698757E0,1.0857596E0,1.223741E0,-3.690733E-1,-4.4049963E-1,3.643514E-1,-3.30864E-1,-3.6615717E-1,-2.8345212E-1,1.22547664E-1,-4.0576932E-1,2.2693928E-1,-3.5136116E-1,-2.5104225E-1,-3.4344015E-1,-3.6011887E-1,-2.1325581E-1,-3.6929348E-1,8.776042E-1,3.6077613E-1,2.100216E-1,-7.749587E-1,-4.2761648E-1,3.3689842E-1,-4.84998E-1,3.5744414E-1,3.6854854E-1,1.0586571E-1,-4.3964675E-1],"categories":[],"categories_nodes":[],"categories_segments":[],"categories_sizes":[],"default_left":[0,0,0,0,0,0,0,0,0,0,0,0,0,0,0,0,0,0,0,0,0,0,0,0,0,0,0,0,0,0,0,0,0,0,0,0,0,0,0,0,0,0,0,0,0,0,0,0,0,0,0,0,0,0,0,0,0,0,0,0,0],"id":3,"left_children":[1,3,5,7,9,11,-1,13,-1,15,17,19,21,-1,-1,23,25,27,29,31,33,35,37,39,41,43,45,47,-1,49,-1,51,53,55,57,-1,59,-1,-1,-1,-1,-1,-1,-1,-1,-1,-1,-1,-1,-1,-1,-1,-1,-1,-1,-1,-1,-1,-1,-1,-1],"loss_changes":[1.1710584E6,1E3,3.5289403E5,3.8589219E3,9.313125E2,4.5042625E4,0E0,2.5368042E1,0E0,1.0435156E3,4.99375E1,1.38963125E4,6.3704395E2,0E0,0E0,4.7828125E2,1.7069727E3,1.081875E2,2.45625E1,3.9626406E4,1.3698125E3,3.3193164E2,3.9291412E1,1.3845312E2,6.023096E2,7.5767524E3,3.1626172E2,6.888906E2,0E0,3.0798281E3,0E0,1.0512594E4,1.6337734E3,1.0558539E4,3.375E1,0E0,4.636529E2,0E0,0E0,0E0,0E0,0E0,0E0,0E0,0E0,0E0,0E0,0E0,0E0,0E0,0E0,0E0,0E0,0E0,0E0,0E0,0E0,0E0,0E0,0E0,0E0],"parents":[2147483647,0,0,1,1,2,2,3,3,4,4,5,5,7,7,9,9,10,10,11,11,12,12,15,15,16,16,17,17,18,18,19,19,20,20,21,21,22,22,23,23,24,24,25,25,26,26,27,27,29,29,31,31,32,32,33,33,34,34,36,36],"right_children":[2,4,6,8,10,12,-1,14,-1,16,18,20,22,-1,-1,24,26,28,30,32,34,36,38,40,42,44,46,48,-1,50,-1,52,54,56,58,-1,60,-1,-1,-1,-1,-1,-1,-1,-1,-1,-1,-1,-1,-1,-1,-1,-1,-1,-1,-1,-1,-1,-1,-1,-1],"split_conditions":[0E0,-9.696292E5,1E0,7.5766506E0,3.9E1,4.5474735E-13,-3.6910504E-1,1.34007015E1,-3.690022E-1,1E0,3.9318256E0,1.1964594E1,1.3699841E1,-3.1084934E-1,3.6873496E-1,1.4422191E1,1.0726334E1,2.32E2,-5.342959E5,1.1978676E1,1.29587965E1,2.1038694E5,-5.116354E5,1.3839274E1,3.9318256E0,3.9318256E0,1.059165E1,2.3E2,-3.6966658E-1,1E0,-3.6930764E-1,-1.0000001E-2,1.2260022E1,1.297854E1,1.3247485E1,-3.690733E-1,1.2907854E1,3.643514E-1,-3.30864E-1,-3.6615717E-1,-2.8345212E-1,1.22547664E-1,-4.0576932E-1,2.2693928E-1,-3.5136116E-1,-2.5104225E-1,-3.4344015E-1,-3.6011887E-1,-2.1325581E-1,-3.6929348E-1,8.776042E-1,3.6077613E-1,2.100216E-1,-7.749587E-1,-4.2761648E-1,3.3689842E-1,-4.84998E-1,3.5744414E-1,3.6854854E-1,1.0586571E-1,-4.3964675E-1],"split_indices":[8,9,7,3,0,8,0,2,0,4,2,1,1,0,0,1,3,0,9,2,1,9,9,1,2,2,1,0,0,5,0,9,2,2,1,0,3,0,0,0,0,0,0,0,0,0,0,0,0,0,0,0,0,0,0,0,0,0,0,0,0],"split_type":[0,0,0,0,0,0,0,0,0,0,0,0,0,0,0,0,0,0,0,0,0,0,0,0,0,0,0,0,0,0,0,0,0,0,0,0,0,0,0,0,0,0,0,0,0,0,0,0,0,0,0,0,0,0,0,0,0,0,0,0,0],"sum_hessian":[1.2731454E6,6.734577E5,5.996877E5,3.7208718E3,6.697368E5,5.1929088E5,8.039682E4,8.2898157E2,2.8918904E3,1.05413375E5,5.6432344E5,5.099194E5,9.371495E3,4.2648735E0,8.2471674E2,6.192772E4,4.348566E4,2.227687E5,3.4155475E5,1.7528792E5,3.3463147E5,9.245681E3,1.25814156E2,6.1150082E4,7.7763696E2,1.0246282E4,3.323938E4,1.1505719E5,1.07711516E5,2.0168756E4,3.21386E5,1.7038555E5,4.902368E3,1.0491092E5,2.2972055E5,8.677167E3,5.685144E2,1.1877804E2,7.036116E0,5.9250957E4,1.8991261E3,4.111759E2,3.664611E2,2.8081096E3,7.4381724E3,3.774795E3,2.9464582E4,1.1210182E5,2.9553687E3,1.9989785E4,1.7897017E2,7.238316E4,9.80024E4,2.3036985E3,2.5986694E3,1.0348564E5,1.4252821E3,2.9537137E4,2.0018342E5,3.208323E2,2.476821E2],"tree_param":{"num_deleted":"0","num_feature":"10","num_nodes":"61","size_leaf_vector":"0"}},{"base_weights":[-2.7594188E-1,-1.1253734E0,6.505949E-1,-1.0257584E0,-1.1444018E0,9.197117E-1,-3.4777358E-1,-1.1178205E0,-8.9792407E-1,-6.1004215E-1,-1.1472211E0,9.552609E-1,-1.0732927E0,-1.1337116E0,-1.760931E-1,7.1156585E-1,-9.223215E-1,3.4631228E-1,-3.476021E-1,-1.1316624E0,-1.1574202E0,6.403894E-1,1.0672357E0,-1.1015971E0,1.0059769E0,-1.1454134E0,-7.99376E-1,6.118143E-1,-1.3754909E0,2.2810156E0,-1.2484235E0,-8.067562E-1,-1.1205937E0,-1.1493392E0,-1.0834174E0,-3.4785318E-1,-1.1146048E0,7.987532E-1,-2.569383E0,9.158545E-1,1.137248E0,-3.4773353E-1,-3.5631585E-1,3.4168175E-1,-3.0279148E-1,-3.1013718E-1,-3.485281E-1,4.033822E-1,-3.6482707E-1,-1.5854907E-1,7.478026E-1,-4.765954E-1,-3.6900216E-1,9.250105E-1,3.4983182E-1,-5.6817484E-1,-3.5053855E-1,-5.5642973E-4,-2.906514E-1,-3.542708E-1,2.8502697E-1,-3.3971098E-1,-3.4840927E-1,4.111165E-1,-3.3394334E-1,-3.4863672E-1,4.573461E-2,3.3712772E-1,1.7609762E-1,-1.3500757E0,-5.08006E-1,2.950785E-1,-5.057211E-1,3.22542E-1,3.4676874E-1,-4.4878402E-1,9.985387E-2],"categories":[],"categories_nodes":[],"categories_segments":[],"categories_sizes":[],"default_left":[0,0,0,0,0,0,0,0,0,0,0,0,0,0,0,0,0,0,0,0,0,0,0,0,0,0,0,0,0,0,0,0,0,0,0,0,0,0,0,0,0,0,0,0,0,0,0,0,0,0,0,0,0,0,0,0,0,0,0,0,0,0,0,0,0,0,0,0,0,0,0,0,0,0,0,0,0],"id":4,"left_children":[1,3,5,7,9,11,-1,13,15,17,19,21,23,25,27,29,31,-1,-1,33,35,37,39,41,43,45,47,49,51,53,55,57,59,61,63,-1,65,67,69,71,73,-1,75,-1,-1,-1,-1,-1,-1,-1,-1,-1,-1,-1,-1,-1,-1,-1,-1,-1,-1,-1,-1,-1,-1,-1,-1,-1,-1,-1,-1,-1,-1,-1,-1,-1,-1],"loss_changes":[7.9588156E5,9.989375E2,2.3557756E5,9.9490625E2,6.665625E2,2.9833062E4,0E0,7.359492E2,1.3920527E3,2.253799E3,6.85625E1,1.4584875E4,4.3539844E2,1.8833984E2,7.7337506E2,1.6321613E3,7.988906E2,0E0,0E0,1.4759375E2,2.253125E1,5.516627E4,3.2331875E3,3.1166992E2,2.7844803E1,8.4078125E1,1.4661139E3,1.0609773E3,8.106628E0,2.598424E2,9.977173E0,2.8773633E3,1.6059268E3,2.4734375E1,3.4163281E3,0E0,7.4757227E2,7.117258E3,8.623863E3,1.7009422E4,2.4040625E2,0E0,4.1129977E2,0E0,0E0,0E0,0E0,0E0,0E0,0E0,0E0,0E0,0E0,0E0,0E0,0E0,0E0,0E0,0E0,0E0,0E0,0E0,0E0,0E0,0E0,0E0,0E0,0E0,0E0,0E0,0E0,0E0,0E0,0E0,0E0,0E0,0E0],"parents":[2147483647,0,0,1,1,2,2,3,3,4,4,5,5,7,7,8,8,9,9,10,10,11,11,12,12,13,13,14,14,15,15,16,16,19,19,20,20,21,21,22,22,23,23,24,24,25,25,26,26,27,27,28,28,29,29,30,30,31,31,32,32,33,33,34,34,36,36,37,37,38,38,39,39,40,40,42,42],"right_children":[2,4,6,8,10,12,-1,14,16,18,20,22,24,26,28,30,32,-1,-1,34,36,38,40,42,44,46,48,50,52,54,56,58,60,62,64,-1,66,68,70,72,74,-1,76,-1,-1,-1,-1,-1,-1,-1,-1,-1,-1,-1,-1,-1,-1,-1,-1,-1,-1,-1,-1,-1,-1,-1,-1,-1,-1,-1,-1,-1,-1,-1,-1,-1,-1],"split_conditions":[0E0,3.9E1,1E0,1E0,-9.696292E5,4.5474735E-13,-3.4777358E-1,1.4422191E1,8E0,7.5766506E0,3.9318256E0,1.1486106E1,1.3699841E1,1.3839274E1,1.4072006E1,7.5766506E0,8.443332E0,3.4631228E-1,-3.476021E-1,1.2215556E1,1.3151365E1,1.1504944E1,1.2620417E1,2.1038694E5,-5.116354E5,-3.8854844E5,9E0,1.4056639E1,-2.1827873E-10,1.1807206E1,1.0726334E1,1.0726334E1,1.5882232E1,-4.056454E4,7.5766506E0,-3.4785318E-1,1.3191471E1,-1.0000001E-2,1.1642268E1,1.2624796E1,1.3196184E1,-3.4773353E-1,1.2698517E1,3.4168175E-1,-3.0279148E-1,-3.1013718E-1,-3.485281E-1,4.033822E-1,-3.6482707E-1,-1.5854907E-1,7.478026E-1,-4.765954E-1,-3.6900216E-1,9.250105E-1,3.4983182E-1,-5.6817484E-1,-3.5053855E-1,-5.5642973E-4,-2.906514E-1,-3.542708E-1,2.8502697E-1,-3.3971098E-1,-3.4840927E-1,4.111165E-1,-3.3394334E-1,-3.4863672E-1,4.573461E-2,3.3712772E-1,1.7609762E-1,-1.3500757E0,-5.08006E-1,2.950785E-1,-5.057211E-1,3.22542E-1,3.4676874E-1,-4.4878402E-1,9.985387E-2],"split_indices":[8,0,7,4,9,8,0,1,0,3,2,1,1,1,3,3,2,0,0,1,1,2,1,9,9,9,0,3,9,1,3,3,3,8,3,0,2,9,2,2,1,0,2,0,0,0,0,0,0,0,0,0,0,0,0,0,0,0,0,0,0,0,0,0,0,0,0,0,0,0,0,0,0,0,0,0,0],"split_type":[0,0,0,0,0,0,0,0,0,0,0,0,0,0,0,0,0,0,0,0,0,0,0,0,0,0,0,0,0,0,0,0,0,0,0,0,0,0,0,0,0,0,0,0,0,0,0,0,0,0,0,0,0,0,0,0,0,0,0,0,0,0,0,0,0,0,0,0,0,0,0,0,0,0,0,0,0],"sum_hessian":[1.0112456E6,5.275748E5,4.8367084E5,8.462307E4,4.4295172E5,4.2106103E5,6.2609797E4,4.9190168E4,3.5432902E4,2.3258884E3,4.4062584E5,4.1368272E5,7.3783228E3,4.8373688E4,8.1648346E2,5.286677E2,3.4904234E4,5.514153E2,1.774473E3,1.7451556E5,2.6611028E5,1.085234E5,3.051593E5,7.2796973E3,9.862548E1,4.673552E4,1.6381678E3,4.930677E2,3.2341574E2,2.9349197E2,2.3517577E2,2.2054549E4,1.2849687E4,1.277028E5,4.681276E4,2.536976E5,1.2412686E4,1.0342154E5,5.1018623E3,9.650643E4,2.0865289E5,6.757643E3,5.220544E2,9.2929146E1,5.696335E0,5.978222E3,4.0757297E4,2.6622427E2,1.3719436E3,3.0741187E2,1.8565584E2,1.2716934E2,1.9624638E2,1.696422E2,1.23849785E2,2.3421314E1,2.1175444E2,3.6968633E3,1.8357686E4,1.2486446E4,3.632398E2,5.3002656E4,7.470014E4,5.5979376E2,4.625297E4,1.1964086E4,4.485994E2,4.0799367E4,6.262217E4,1.5909935E3,3.5108687E3,9.405797E4,2.448463E3,4.8194434E4,1.6045845E5,1.9628975E2,3.2576462E2],"tree_param":{"num_deleted":"0","num_feature":"10","num_nodes":"77","size_leaf_vector":"0"}},{"base_weights":[-2.590064E-1,-1.0704864E0,5.952021E-1,-9.4974816E-1,-1.0942855E0,8.3665025E-1,-3.3373752E-1,-1.061876E0,-8.027753E-1,-5.850513E-1,-1.0969645E0,8.685183E-1,-1.0145354E0,-1.0934229E0,-5.2190745E-1,-4.7641802E-1,-9.177505E-1,3.3157977E-1,-3.335185E-1,-1.077189E0,-1.1100172E0,6.3125455E-1,1.0576441E0,-4.1327122E-1,-1.1211017E0,-9.561172E-1,-3.3425E-1,7.780785E-2,-3.4421492E-1,5.5979294E-1,-1.0288076E0,-1.2021937E-1,-9.459793E-1,-9.3373E-1,-1.0867203E0,-3.3379403E-1,-1.0568132E0,6.9019103E-1,-1.4796503E0,9.355792E-1,1.1018128E0,-9.081073E-1,8.042865E-1,-3.3368176E-1,-1.3863767E0,-3.3578834E-1,1.8797011E0,2.383177E-1,-3.7378496E-1,-7.873486E-1,3.475125E-1,4.9223247E-1,-3.4357068E-1,1.3677117E0,-3.5111088E-1,-2.214932E-1,-3.2136682E-1,8.0135167E-1,-3.0703157E-1,-3.3462507E-1,-3.1714648E-1,-3.343294E-1,3.1472895E-2,3.207853E-1,1.4061186E-1,-5.1735973E-1,1.8597278E-1,2.9475698E-1,-5.5578274E-1,3.1530637E-1,3.326595E-1,-3.5176593E-1,2.995289E-1,-3.2859948E-1,4.3657607E-1,-4.9323282E-1,-3.5224593E-1],"categories":[],"categories_nodes":[],"categories_segments":[],"categories_sizes":[],"default_left":[0,0,0,0,0,0,0,0,0,0,0,0,0,0,0,0,0,0,0,0,0,0,0,0,0,0,0,0,0,0,0,0,0,0,0,0,0,0,0,0,0,0,0,0,0,0,0,0,0,0,0,0,0,0,0,0,0,0,0,0,0,0,0,0,0,0,0,0,0,0,0,0,0,0,0,0,0],"id":5,"left_children":[1,3,5,7,9,11,-1,13,15,17,19,21,23,25,27,29,31,-1,-1,33,35,37,39,41,43,45,-1,47,-1,49,51,53,55,57,59,-1,61,63,65,67,69,71,73,-1,75,-1,-1,-1,-1,-1,-1,-1,-1,-1,-1,-1,-1,-1,-1,-1,-1,-1,-1,-1,-1,-1,-1,-1,-1,-1,-1,-1,-1,-1,-1,-1,-1],"loss_changes":[5.515181E5,1.1714375E3,1.5981972E5,1.1064648E3,4.643125E2,2.0035188E4,0E0,6.486211E2,1.0908066E3,1.5910673E3,8.634375E1,1.4980234E4,3.6781934E2,1.0149219E2,7.899117E2,4.338435E3,4.840254E2,0E0,0E0,1.83375E2,2.740625E1,1.842405E4,1.0005469E3,5.230443E2,9.89209E0,5.5843237E3,0E0,1.0215407E3,0E0,5.027106E3,1.5384292E3,3.623373E3,5.393965E2,2.7217783E3,1.0609375E2,0E0,6.4518945E2,1.2095477E4,2.0692285E3,6.463332E3,4.76875E1,3.1218436E2,3.1203717E2,0E0,6.4487E0,0E0,0E0,0E0,0E0,0E0,0E0,0E0,0E0,0E0,0E0,0E0,0E0,0E0,0E0,0E0,0E0,0E0,0E0,0E0,0E0,0E0,0E0,0E0,0E0,0E0,0E0,0E0,0E0,0E0,0E0,0E0,0E0],"parents":[2147483647,0,0,1,1,2,2,3,3,4,4,5,5,7,7,8,8,9,9,10,10,11,11,12,12,13,13,14,14,15,15,16,16,19,19,20,20,21,21,22,22,23,23,24,24,25,25,27,27,29,29,30,30,31,31,32,32,33,33,34,34,36,36,37,37,38,38,39,39,40,40,41,41,42,42,44,44],"right_children":[2,4,6,8,10,12,-1,14,16,18,20,22,24,26,28,30,32,-1,-1,34,36,38,40,42,44,46,-1,48,-1,50,52,54,56,58,60,-1,62,64,66,68,70,72,74,-1,76,-1,-1,-1,-1,-1,-1,-1,-1,-1,-1,-1,-1,-1,-1,-1,-1,-1,-1,-1,-1,-1,-1,-1,-1,-1,-1,-1,-1,-1,-1,-1,-1],"split_conditions":[0E0,3.9E1,1E0,1E0,-9.696292E5,4.5474735E-13,-3.3373752E-1,1.3839274E1,1.0726334E1,7.5766506E0,3.9318256E0,1.2253884E1,1.8E1,-3.8854844E5,-2.1827873E-10,3.9318256E0,-5.0627778E5,3.3157977E-1,-3.335185E-1,9.4E1,1.3151365E1,1.2233031E1,1.2985291E1,1.7E1,2.1038694E5,-4.430542E4,-3.3425E-1,1.4072006E1,-3.4421492E-1,1.1447598E1,8E0,1.3151365E1,1.1647687E1,-1.2094664E6,1E0,-3.3379403E-1,1.3191471E1,-1.0000001E-2,1.2241165E1,1.3033627E1,1.3247485E1,1.3699841E1,2.1038694E5,-3.3368176E-1,2.7498247E5,-3.3578834E-1,1.8797011E0,2.383177E-1,-3.7378496E-1,-7.873486E-1,3.475125E-1,4.9223247E-1,-3.4357068E-1,1.3677117E0,-3.5111088E-1,-2.214932E-1,-3.2136682E-1,8.0135167E-1,-3.0703157E-1,-3.3462507E-1,-3.1714648E-1,-3.343294E-1,3.1472895E-2,3.207853E-1,1.4061186E-1,-5.1735973E-1,1.8597278E-1,2.9475698E-1,-5.5578274E-1,3.1530637E-1,3.326595E-1,-3.5176593E-1,2.995289E-1,-3.2859948E-1,4.3657607E-1,-4.9323282E-1,-3.5224593E-1],"split_indices":[8,0,7,4,9,8,0,1,3,3,2,1,0,9,9,2,8,0,0,0,1,2,1,0,9,8,0,3,0,1,0,1,1,8,4,0,2,9,1,2,1,1,9,0,9,0,0,0,0,0,0,0,0,0,0,0,0,0,0,0,0,0,0,0,0,0,0,0,0,0,0,0,0,0,0,0,0],"split_type":[0,0,0,0,0,0,0,0,0,0,0,0,0,0,0,0,0,0,0,0,0,0,0,0,0,0,0,0,0,0,0,0,0,0,0,0,0,0,0,0,0,0,0,0,0,0,0,0,0,0,0,0,0,0,0,0,0,0,0,0,0,0,0,0,0,0,0,0,0,0,0,0,0,0,0,0,0],"sum_hessian":[7.9564094E5,4.080253E5,3.8761562E5,6.719109E4,3.4083422E5,3.3959972E5,4.8015906E4,3.811008E4,2.9081014E4,1.7848313E3,3.3904938E5,3.33853E5,5.746724E3,3.600549E4,2.1045908E3,7.577474E3,2.150354E4,4.2374988E2,1.3610814E3,1.3484114E5,2.0420823E5,1.4808305E5,1.8576997E5,8.659235E2,4.880801E3,4.7318276E3,3.127366E4,1.0748676E3,1.0297234E3,2.6348413E3,4.942633E3,7.352829E2,2.0768256E4,8.406926E3,1.2643422E5,1.9457211E5,9.63612E3,1.4406152E5,4.0215247E3,4.936539E4,1.3640458E5,6.158755E2,2.5004805E2,4.728609E3,1.5219206E2,4.6281E3,1.03727486E2,6.9762494E2,3.772426E2,4.1638828E2,2.2184531E3,2.0600636E2,4.736626E3,1.3415846E2,6.0112445E2,7.8157314E3,1.2952525E4,2.0342926E2,8.203497E3,6.414136E4,6.229286E4,9.180819E3,4.5530026E2,5.3126477E4,9.093504E4,3.6016274E3,4.198972E2,4.8548637E4,8.167548E2,1.6648496E4,1.1975608E5,5.411942E2,7.468125E1,6.36437E1,1.8640434E2,6.568028E1,8.651177E1],"tree_param":{"num_deleted":"0","num_feature":"10","num_nodes":"77","size_leaf_vector":"0"}},{"base_weights":[-2.4572049E-1,-1.0298094E0,5.408546E-1,-8.949249E-1,-1.0571917E0,7.554518E-1,-3.2416028E-1,-1.0249977E0,-7.3271114E-1,-5.677495E-1,-1.0597554E0,3.1800836E-1,9.1214675E-1,-1.061225E0,-4.6499452E-1,-5.9807354E-1,-9.9911976E-1,1.0697773E0,-3.2387477E-1,-1.0334294E0,-1.0773195E0,5.365731E-1,-1.9606556E0,7.1525484E-1,1.0436263E0,-3.2481995E-1,-9.211789E-1,4.2663395E-2,-3.3139974E-1,-6.6844887E-1,2.9360027E0,-3.2805863E-1,9.7006506E-1,-2.1288383E-1,3.2328624E-1,-9.881515E-1,-3.2485536E-1,-3.2420278E-1,-1.0104766E0,8.4200305E-1,1.7691961E-1,-5.0180225E0,-1.4804873E0,7.77616E-1,-1.2225165E0,9.4142145E-1,1.0739802E0,3.0939168E-1,-3.261426E-1,1.6645704E-1,-3.5113683E-1,7.1880207E-3,-2.5697035E-1,2.651637E-1,2.7564223E0,1.5673336E0,-3.5110918E-1,-3.0431107E-1,-3.0437449E-2,2.9901247E-2,-3.266232E-1,3.2219768E-1,1.6539904E-1,-1.3411914E0,1.14630036E-1,-1.7606176E0,-3.2355484E-1,-5.363009E-1,-2.6700237E-1,3.190639E-1,1.7886594E-1,-4.3441233E-1,1.51622E-1,3.014266E-1,-8.6179364E-1,3.222473E-1,-3.0529153E-1],"categories":[],"categories_nodes":[],"categories_segments":[],"categories_sizes":[],"default_left":[0,0,0,0,0,0,0,0,0,0,0,0,0,0,0,0,0,0,0,0,0,0,0,0,0,0,0,0,0,0,0,0,0,0,0,0,0,0,0,0,0,0,0,0,0,0,0,0,0,0,0,0,0,0,0,0,0,0,0,0,0,0,0,0,0,0,0,0,0,0,0,0,0,0,0,0,0],"id":6,"left_children":[1,3,5,7,9,11,-1,13,15,17,19,21,23,25,27,29,31,33,-1,35,37,39,41,43,45,-1,47,49,-1,51,53,-1,55,-1,-1,57,-1,-1,59,61,63,65,67,69,71,73,75,-1,-1,-1,-1,-1,-1,-1,-1,-1,-1,-1,-1,-1,-1,-1,-1,-1,-1,-1,-1,-1,-1,-1,-1,-1,-1,-1,-1,-1,-1],"loss_changes":[3.8530525E5,1.154625E3,1.0851661E5,1.1133594E3,3.2571875E2,1.887864E4,0E0,5.939629E2,8.4236914E2,1.138706E3,1.185E2,3.617847E4,5.2487812E3,8.1896484E1,5.7877997E2,3.8853857E3,1.4675698E3,5.28244E0,0E0,2.3066406E2,3.3734375E1,7.281004E3,9.326293E3,9.813008E3,3.7620312E2,0E0,1.1905415E3,6.186332E2,0E0,1.9942407E3,3.9056116E3,0E0,3.2972698E3,0E0,0E0,1.2565469E3,0E0,0E0,6.4600977E2,2.4164375E3,2.9029809E4,2.8844512E3,9.953584E2,4.079543E3,9.8742944E2,6.730252E3,3.5867188E1,0E0,0E0,0E0,0E0,0E0,0E0,0E0,0E0,0E0,0E0,0E0,0E0,0E0,0E0,0E0,0E0,0E0,0E0,0E0,0E0,0E0,0E0,0E0,0E0,0E0,0E0,0E0,0E0,0E0,0E0],"parents":[2147483647,0,0,1,1,2,2,3,3,4,4,5,5,7,7,8,8,9,9,10,10,11,11,12,12,13,13,14,14,15,15,16,16,17,17,19,19,20,20,21,21,22,22,23,23,24,24,26,26,27,27,29,29,30,30,32,32,35,35,38,38,39,39,40,40,41,41,42,42,43,43,44,44,45,45,46,46],"right_children":[2,4,6,8,10,12,-1,14,16,18,20,22,24,26,28,30,32,34,-1,36,38,40,42,44,46,-1,48,50,-1,52,54,-1,56,-1,-1,58,-1,-1,60,62,64,66,68,70,72,74,76,-1,-1,-1,-1,-1,-1,-1,-1,-1,-1,-1,-1,-1,-1,-1,-1,-1,-1,-1,-1,-1,-1,-1,-1,-1,-1,-1,-1,-1,-1],"split_conditions":[0E0,3.9E1,1E0,1E0,-9.696292E5,1.1279259E1,-3.2416028E-1,1.3839274E1,8.443332E0,7.5766506E0,3.9318256E0,1.1291043E1,1.2666643E1,1E0,-2.1827873E-10,8.335671E0,1.5882232E1,1.195118E1,-3.2387477E-1,2.32E2,1.3151365E1,8.551807E0,1.1504944E1,1.2656645E1,1.3196184E1,-3.2481995E-1,-3.8854844E5,1.4072006E1,-3.3139974E-1,1.0726334E1,1.4460564E1,-3.2805863E-1,1.5935315E1,-2.1288383E-1,3.2328624E-1,2.3E2,-3.2485536E-1,-3.2420278E-1,-5.342959E5,-9.313226E-10,1E0,4.5474735E-13,4.5474735E-13,-7.862298E4,1.2650857E1,1.3191471E1,1E-2,3.0939168E-1,-3.261426E-1,1.6645704E-1,-3.5113683E-1,7.1880207E-3,-2.5697035E-1,2.651637E-1,2.7564223E0,1.5673336E0,-3.5110918E-1,-3.0431107E-1,-3.0437449E-2,2.9901247E-2,-3.266232E-1,3.2219768E-1,1.6539904E-1,-1.3411914E0,1.14630036E-1,-1.7606176E0,-3.2355484E-1,-5.363009E-1,-2.6700237E-1,3.190639E-1,1.7886594E-1,-4.3441233E-1,1.51622E-1,3.014266E-1,-8.6179364E-1,3.222473E-1,-3.0529153E-1],"split_indices":[8,0,7,4,9,1,0,1,2,3,2,2,1,5,9,2,3,2,0,0,1,3,2,2,1,0,9,3,0,3,3,0,3,0,0,0,0,0,9,9,4,8,8,9,1,2,8,0,0,0,0,0,0,0,0,0,0,0,0,0,0,0,0,0,0,0,0,0,0,0,0,0,0,0,0,0,0],"split_type":[0,0,0,0,0,0,0,0,0,0,0,0,0,0,0,0,0,0,0,0,0,0,0,0,0,0,0,0,0,0,0,0,0,0,0,0,0,0,0,0,0,0,0,0,0,0,0,0,0,0,0,0,0,0,0,0,0,0,0,0,0,0,0,0,0,0,0,0,0,0,0,0,0,0,0,0,0],"sum_hessian":[6.247383E5,3.1286347E5,3.1187484E5,5.280127E4,2.600622E5,2.754222E5,3.6452676E4,2.9300791E4,2.3500477E4,1.3562322E3,2.5870597E5,7.263922E4,2.0278295E5,2.7519617E4,1.7811742E3,1.5613149E4,7.8873267E3,3.2270377E2,1.0335283E3,1.0355353E5,1.5515244E5,6.628232E4,6.3568994E3,8.1196625E4,1.21586336E5,2.3850027E4,3.6695908E3,9.9357965E2,7.8759454E2,1.53091045E4,3.0404486E2,7.526907E3,3.6041925E2,1.0235556E0,3.216802E2,5.4053438E4,4.9500094E4,1.4771973E5,7.432698E3,3.5842402E4,3.043992E4,8.615725E2,5.4953267E3,7.866562E4,2.531011E3,2.784873E4,9.37376E4,2.8707413E2,3.3825166E3,6.989973E2,2.9458234E2,3.270874E3,1.203823E4,2.2976895E2,7.4275925E1,1.2015492E2,2.4026431E2,5.250089E4,1.5525488E3,4.8948907E2,6.943209E3,1.993187E4,1.5910531E4,1.2861632E3,2.9153758E4,7.0816144E2,1.5341107E2,3.613477E3,1.8818496E3,3.0532752E4,4.8132863E4,2.2389502E3,2.9206067E2,2.739457E4,4.5415924E2,9.373014E4,7.4608965E0],"tree_param":{"num_deleted":"0","num_feature":"10","num_nodes":"77","size_leaf_vector":"0"}},{"base_weights":[-2.3067802E-1,-9.948451E-1,4.942515E-1,-8.6344725E-1,-1.0335529E0,6.8405545E-1,-3.1746602E-1,-6.843526E-1,-9.9869317E-1,-5.309495E-1,-1.0362148E0,4.251002E-1,9.872933E-1,-7.978126E-1,-3.4510825E-2,-1.0158646E0,-4.4532016E-1,3.1357488E-1,-3.1706274E-1,-1.0544686E0,-1.0066525E0,9.653187E-1,2.074893E-1,8.5301346E-1,1.0493451E0,-8.324239E-1,1.156098E0,1.7670265E0,-6.600226E-1,-3.3002487E-1,-1.0279502E0,1.0416257E0,-3.255744E-1,-9.7623426E-1,-3.17837E-1,-8.3460873E-1,-1.0348102E0,1.0337106E0,-1.2833103E0,-1.4727021E0,2.8135687E-1,8.976005E-1,-2.2679524E0,1.0495251E0,-2.8693286E-1,-3.2781306E-1,-2.0897052E-1,-3.175493E-1,2.168469E0,3.550684E-1,1.8352537E0,1.1012234E-2,-3.3015966E-1,-3.210262E-1,2.7217564E-1,-3.099573E-1,9.415572E-2,-4.4153243E-1,5.467325E-1,-3.1805497E-1,4.6571398E-1,9.6622616E-1,-3.176575E-1,-2.8431836E-1,-3.1377733E-1,7.403134E-2,3.1869084E-1,2.8066158E-1,-5.027754E-1,-6.6138405E-1,1.5994594E-1,1.0363889E-1,-4.1746882E-1,3.18188E-1,2.2452185E-1,-3.8552868E-1,-1.6264352E0,3.0244106E-1,3.167332E-1],"categories":[],"categories_nodes":[],"categories_segments":[],"categories_sizes":[],"default_left":[0,0,0,0,0,0,0,0,0,0,0,0,0,0,0,0,0,0,0,0,0,0,0,0,0,0,0,0,0,0,0,0,0,0,0,0,0,0,0,0,0,0,0,0,0,0,0,0,0,0,0,0,0,0,0,0,0,0,0,0,0,0,0,0,0,0,0,0,0,0,0,0,0,0,0,0,0,0,0],"id":7,"left_children":[1,3,5,7,9,11,-1,13,15,17,19,21,23,25,27,29,31,-1,-1,33,35,37,39,41,43,45,47,49,51,53,55,57,-1,59,-1,61,63,65,67,69,71,73,75,77,-1,-1,-1,-1,-1,-1,-1,-1,-1,-1,-1,-1,-1,-1,-1,-1,-1,-1,-1,-1,-1,-1,-1,-1,-1,-1,-1,-1,-1,-1,-1,-1,-1,-1,-1],"loss_changes":[2.7233603E5,1.2163594E3,7.433958E4,1.3185742E3,2.4679688E2,1.765193E4,0E0,1.7280137E3,2.9439648E2,8.10188E2,9.815625E1,1.4254207E4,8.618828E2,1.3503525E3,3.928153E3,2.4910742E2,8.9144226E2,0E0,0E0,4.3328125E1,3.393125E2,5.3559297E3,1.0728346E4,4.5567734E3,2.6585938E1,6.9255273E2,4.6835063E3,2.2732166E3,7.941626E2,4.7950247E2,2.0828711E2,5.5616223E2,0E0,1.4505264E3,0E0,8.989867E3,5.740625E1,7.6004297E2,8.9725146E2,5.345469E3,8.880148E3,7.8412305E2,1.4228313E3,1.7265625E1,0E0,0E0,0E0,0E0,0E0,0E0,0E0,0E0,0E0,0E0,0E0,0E0,0E0,0E0,0E0,0E0,0E0,0E0,0E0,0E0,0E0,0E0,0E0,0E0,0E0,0E0,0E0,0E0,0E0,0E0,0E0,0E0,0E0,0E0,0E0],"parents":[2147483647,0,0,1,1,2,2,3,3,4,4,5,5,7,7,8,8,9,9,10,10,11,11,12,12,13,13,14,14,15,15,16,16,19,19,20,20,21,21,22,22,23,23,24,24,25,25,26,26,27,27,28,28,29,29,30,30,31,31,33,33,35,35,36,36,37,37,38,38,39,39,40,40,41,41,42,42,43,43],"right_children":[2,4,6,8,10,12,-1,14,16,18,20,22,24,26,28,30,32,-1,-1,34,36,38,40,42,44,46,48,50,52,54,56,58,-1,60,-1,62,64,66,68,70,72,74,76,78,-1,-1,-1,-1,-1,-1,-1,-1,-1,-1,-1,-1,-1,-1,-1,-1,-1,-1,-1,-1,-1,-1,-1,-1,-1,-1,-1,-1,-1,-1,-1,-1,-1,-1,-1],"split_conditions":[0E0,9.4E1,1E0,3.9318256E0,-9.696292E5,1.2410025E1,-3.1746602E-1,1.2909755E1,1.5882232E1,7.5766506E0,1E0,-1.0000001E-2,1.3196184E1,4.7E1,1.2473107E1,8E0,1.5935315E1,3.1357488E-1,-3.1706274E-1,-5.342959E5,7.5766506E0,1.052666E1,1E0,1.3191471E1,1E-2,1.0034067E1,1E0,1.24354515E1,1.4072006E1,1E0,1.4831805E1,1.2650857E1,-3.255744E-1,1E0,-3.17837E-1,3.9318256E0,-3.2737844E5,1E0,8.101981E0,1.0000001E-2,1.2409311E1,-2.1480623E5,1.2985291E1,1.3467688E1,-2.8693286E-1,-3.2781306E-1,-2.0897052E-1,-3.175493E-1,2.168469E0,3.550684E-1,1.8352537E0,1.1012234E-2,-3.3015966E-1,-3.210262E-1,2.7217564E-1,-3.099573E-1,9.415572E-2,-4.4153243E-1,5.467325E-1,-3.1805497E-1,4.6571398E-1,9.6622616E-1,-3.176575E-1,-2.8431836E-1,-3.1377733E-1,7.403134E-2,3.1869084E-1,2.8066158E-1,-5.027754E-1,-6.6138405E-1,1.5994594E-1,1.0363889E-1,-4.1746882E-1,3.18188E-1,2.2452185E-1,-3.8552868E-1,-1.6264352E0,3.0244106E-1,3.167332E-1],"split_indices":[8,0,7,2,9,1,0,1,3,3,4,9,1,0,3,0,3,0,0,9,3,3,4,2,8,1,5,3,3,4,1,1,0,5,0,2,8,5,2,9,2,9,1,1,0,0,0,0,0,0,0,0,0,0,0,0,0,0,0,0,0,0,0,0,0,0,0,0,0,0,0,0,0,0,0,0,0,0,0],"split_type":[0,0,0,0,0,0,0,0,0,0,0,0,0,0,0,0,0,0,0,0,0,0,0,0,0,0,0,0,0,0,0,0,0,0,0,0,0,0,0,0,0,0,0,0,0,0,0,0,0,0,0,0,0,0,0,0,0,0,0,0,0,0,0,0,0,0,0,0,0,0,0,0,0,0,0,0,0,0,0],"sum_hessian":[4.9160847E5,2.3932712E5,2.5228134E5,5.4464457E4,1.8486267E5,2.2479823E5,2.74831E4,2.3436094E4,3.1028361E4,9.750169E2,1.8388766E5,1.2125383E5,1.03544414E5,1.9952271E4,3.4838225E3,3.0093705E4,9.346556E2,2.4369034E2,7.3132654E2,1.136673E5,7.022036E4,3.4817086E4,8.643674E4,3.2730498E4,7.0813914E4,1.9605555E4,3.4671664E2,8.973986E2,2.5864238E3,5.216071E2,2.9572098E4,2.8102768E2,6.536279E2,6.824508E3,1.0684279E5,9.880603E3,6.0339758E4,3.3789906E4,1.0271777E3,3.639258E3,8.2797484E4,3.227019E4,4.60309E2,7.080803E4,5.880426E0,6.7212476E3,1.2884308E4,2.54663E2,9.205365E1,7.923982E2,1.0500042E2,1.00220575E3,1.5842181E3,3.2646884E2,1.951383E2,2.9457273E4,1.14825066E2,6.640119E1,2.146265E2,6.60578E3,2.1872838E2,5.170384E2,9.363564E3,6.8392446E3,5.3500516E4,1.1849968E3,3.260491E4,1.5421844E2,8.729593E2,2.6662703E3,9.7298773E2,7.9742555E4,3.0549316E3,1.5417369E4,1.685282E4,3.5200604E2,1.0830292E2,9.313796E3,6.1494234E4],"tree_param":{"num_deleted":"0","num_feature":"10","num_nodes":"79","size_leaf_vector":"0"}},{"base_weights":[-2.1736751E-1,-9.635376E-1,4.411639E-1,-7.640739E-1,-1.0081587E0,6.049992E-1,-3.1270835E-1,-9.57184E-1,-5.5958354E-1,-1.013556E0,-7.637763E-1,3.571504E-1,9.6285903E-1,-1.0075027E0,-3.2812294E-1,-4.0129206E-1,-9.477968E-1,-9.781941E-1,-1.037421E0,7.1866447E-1,-9.191159E-1,9.330274E-1,1.604317E-1,7.6501447E-1,1.018549E0,-3.1325248E-1,-7.9364556E-1,8.832661E-2,-3.170699E-1,2.1142799E-1,-6.397926E-1,-3.1502876E-1,2.3617883E-1,-9.201976E-1,-3.136898E-1,-3.1276244E-1,-9.1307163E-1,1.6335794E0,-3.3462462E-1,-3.149078E-1,1.0047036E0,-2.531504E-1,1.0403094E0,6.125424E-1,-7.286434E-2,8.5753214E-1,-1.2141109E0,9.399782E-1,1.0369716E0,2.9808867E-1,-3.1479236E-1,2.0386529E-1,-2.2568488E-1,1.7502083E-1,-4.23251E-1,8.177786E-2,-2.3602676E-1,3.270278E-1,-3.6138123E-1,-2.892309E-1,5.2951507E-2,-7.54597E-2,-3.1511617E-1,-3.1587854E-1,5.453027E-1,3.1072745E-1,-2.401855E-1,2.695872E-1,-2.2274804E-1,3.1371143E-1,-7.7107227E-1,2.4081055E-2,3.2838488E-1,-1.6755727E-1,6.631734E-2,3.125762E-1,2.113084E-1,-4.8786354E-1,4.3307476E-2,2.9673365E-1,-1.1561712E0,3.1123808E-1,1.3966952E-1],"categories":[],"categories_nodes":[],"categories_segments":[],"categories_sizes":[],"default_left":[0,0,0,0,0,0,0,0,0,0,0,0,0,0,0,0,0,0,0,0,0,0,0,0,0,0,0,0,0,0,0,0,0,0,0,0,0,0,0,0,0,0,0,0,0,0,0,0,0,0,0,0,0,0,0,0,0,0,0,0,0,0,0,0,0,0,0,0,0,0,0,0,0,0,0,0,0,0,0,0,0,0,0],"id":8,"left_children":[1,3,5,7,9,11,-1,13,15,17,19,21,23,25,27,29,31,33,35,37,39,41,43,45,47,-1,49,51,-1,53,55,-1,57,59,-1,-1,61,63,-1,-1,65,67,69,71,73,75,77,79,81,-1,-1,-1,-1,-1,-1,-1,-1,-1,-1,-1,-1,-1,-1,-1,-1,-1,-1,-1,-1,-1,-1,-1,-1,-1,-1,-1,-1,-1,-1,-1,-1,-1,-1],"loss_changes":[1.9180128E5,1.6278906E3,5.039636E4,1.3206426E3,1.9646875E2,1.6561148E4,0E0,5.44291E2,9.9831494E2,1.22453125E2,7.456731E2,1.2497546E4,8.4103125E2,1.2411035E2,3.873081E2,1.6874595E3,5.7030176E2,2.2967578E2,5.4648438E1,5.176718E2,7.3678955E2,3.5748164E3,8.67347E3,3.0747314E3,8.532422E1,0E0,1.0685023E3,4.0447107E2,0E0,1.9534996E3,1.1146799E3,0E0,4.6284055E2,1.5271426E3,0E0,0E0,3.1422095E2,1.0355267E2,0E0,0E0,1.1294281E1,1.3142263E3,5.0448828E2,7.1819277E3,7.7430747E3,4.522119E2,4.201532E2,2.67358E3,1.29921875E1,0E0,0E0,0E0,0E0,0E0,0E0,0E0,0E0,0E0,0E0,0E0,0E0,0E0,0E0,0E0,0E0,0E0,0E0,0E0,0E0,0E0,0E0,0E0,0E0,0E0,0E0,0E0,0E0,0E0,0E0,0E0,0E0,0E0,0E0],"parents":[2147483647,0,0,1,1,2,2,3,3,4,4,5,5,7,7,8,8,9,9,10,10,11,11,12,12,13,13,14,14,15,15,16,16,17,17,18,18,19,19,20,20,21,21,22,22,23,23,24,24,26,26,27,27,29,29,30,30,32,32,33,33,36,36,37,37,40,40,41,41,42,42,43,43,44,44,45,45,46,46,47,47,48,48],"right_children":[2,4,6,8,10,12,-1,14,16,18,20,22,24,26,28,30,32,34,36,38,40,42,44,46,48,-1,50,52,-1,54,56,-1,58,60,-1,-1,62,64,-1,-1,66,68,70,72,74,76,78,80,82,-1,-1,-1,-1,-1,-1,-1,-1,-1,-1,-1,-1,-1,-1,-1,-1,-1,-1,-1,-1,-1,-1,-1,-1,-1,-1,-1,-1,-1,-1,-1,-1,-1,-1],"split_conditions":[0E0,3.9E1,1E0,1E0,1.3996891E1,1.2491066E1,-3.1270835E-1,1.3839274E1,8.443332E0,3.9318256E0,4.4E1,-1.0000001E-2,1.2985291E1,1E0,-2.1827873E-10,1.0726334E1,1.5882232E1,2.32E2,1.3151365E1,1.2473107E1,1.4063252E1,1E0,1.29E2,1.297854E1,1.3381053E1,-3.1325248E-1,-3.8854844E5,3.9318256E0,-3.170699E-1,-9.333826E4,1.059165E1,-3.1502876E-1,-2.3579638E5,2.3E2,-3.136898E-1,-3.1276244E-1,1.3196184E1,1.2454709E1,-3.3462462E-1,-3.149078E-1,7.5766506E0,9E0,7.5766506E0,4.6E1,1.0866127E1,-2.1480623E5,1.29587965E1,1.34007015E1,4.5474735E-13,2.9808867E-1,-3.1479236E-1,2.0386529E-1,-2.2568488E-1,1.7502083E-1,-4.23251E-1,8.177786E-2,-2.3602676E-1,3.270278E-1,-3.6138123E-1,-2.892309E-1,5.2951507E-2,-7.54597E-2,-3.1511617E-1,-3.1587854E-1,5.453027E-1,3.1072745E-1,-2.401855E-1,2.695872E-1,-2.2274804E-1,3.1371143E-1,-7.7107227E-1,2.4081055E-2,3.2838488E-1,-1.6755727E-1,6.631734E-2,3.125762E-1,2.113084E-1,-4.8786354E-1,4.3307476E-2,2.9673365E-1,-1.1561712E0,3.1123808E-1,1.3966952E-1],"split_indices":[8,0,7,4,1,1,0,1,2,2,0,9,1,5,9,3,3,0,1,3,2,5,0,2,1,0,9,2,0,8,1,0,8,0,0,0,1,3,0,0,3,0,3,0,1,9,1,2,8,0,0,0,0,0,0,0,0,0,0,0,0,0,0,0,0,0,0,0,0,0,0,0,0,0,0,0,0,0,0,0,0,0,0],"split_type":[0,0,0,0,0,0,0,0,0,0,0,0,0,0,0,0,0,0,0,0,0,0,0,0,0,0,0,0,0,0,0,0,0,0,0,0,0,0,0,0,0,0,0,0,0,0,0,0,0,0,0,0,0,0,0,0,0,0,0,0,0,0,0,0,0,0,0,0,0,0,0,0,0,0,0,0,0,0,0,0,0,0,0],"sum_hessian":[3.9033284E5,1.8298988E5,2.0734298E5,3.3455676E4,1.495342E5,1.867226E5,2.0620395E4,1.7204734E4,1.625094E4,1.4629997E5,3.2342224E3,1.103191E5,7.6403484E4,1.5929897E4,1.2748365E3,1.1545408E4,4.705532E3,5.896749E4,8.7332484E4,3.064144E2,2.927808E3,2.808855E4,8.223055E4,1.678557E4,5.9617918E4,1.3594786E4,2.3351113E3,8.1181476E2,4.6302176E2,3.2349E3,8.310508E3,4.3313994E3,3.741327E2,3.1710967E4,2.7256521E4,8.387151E4,3.4609797E3,2.0450711E2,1.01907295E2,2.742143E3,1.8566508E2,2.3296057E3,2.5758945E4,2.7988756E4,5.4241793E4,1.6036483E4,7.4908655E2,1.1333562E4,4.8284355E4,2.918651E2,2.0432463E3,4.767175E2,3.3509723E2,2.6320325E3,6.028676E2,1.1527961E3,7.157712E3,2.3506143E2,1.3907127E2,3.0490432E4,1.2205353E3,5.953961E2,2.8655835E3,1.2812686E1,1.9169443E2,1.8294443E2,2.7206652E0,6.943849E2,1.635221E3,2.572122E4,3.772515E1,1.3302372E4,1.4686384E4,2.045019E4,3.37916E4,7.274076E3,8.762406E3,5.745851E2,1.7450146E2,1.1219365E4,1.14197E2,4.8242293E4,4.206541E1],"tree_param":{"num_deleted":"0","num_feature":"10","num_nodes":"83","size_leaf_vector":"0"}},{"base_weights":[-1.9875047E-1,-9.315382E-1,3.8836357E-1,-7.0457137E-1,-9.854747E-1,5.258362E-1,-3.092867E-1,-9.427123E-1,-5.0336266E-1,-1.013085E0,-9.2330927E-1,2.9873985E-1,9.5046276E-1,-1.0258355E0,2.2742916E-2,-2.5840646E-1,-9.059742E-1,-3.0961898E-1,-9.771631E-1,-1.281001E-1,-9.3986446E-1,8.997322E-1,1.2987521E-1,7.363055E-1,1.0013266E0,-7.254236E-1,-1.044573E0,-5.701918E-1,1.3186557E0,6.2731667E-3,-1.0450389E0,-9.7669923E-1,-1.8717991E-1,-8.1306213E-1,-1.0015827E0,1.8399903E0,-3.1075767E-1,-6.578235E-1,-9.9237156E-1,-1.7847711E-1,1.0271196E0,-1.1998276E0,1.8519656E-1,8.2228357E-1,-1.542385E0,9.0841925E-1,1.0235306E0,-3.1300732E-1,6.955662E-3,-3.0967435E-1,-3.349506E-1,1.8868743E-1,-3.3878294E-1,-4.170916E-1,4.6160546E-1,5.1229313E-2,-3.20073E-1,-3.1191063E-1,-3.6513534E-1,-1.1091361E-1,-3.186954E-1,2.8492945E-1,-3.1658447E-1,-1.651289E-1,-3.098062E-1,-2.459402E-1,-3.0990556E-1,-3.0241495E-1,7.034095E-1,3.210181E-1,-2.611671E-1,-3.1021726E-1,-2.0879143E-1,-4.509746E-3,-6.318465E-1,3.0984697E-1,-6.1259747E-1,-5.3674597E-1,1.1359037E-1,6.772088E-2,-4.047839E-1,3.0840665E-1,1.9891866E-1,-4.0593487E-1,-1.10192E0,2.8684345E-1,-9.596051E-1,3.0727267E-1,1.0740807E-1],"categories":[],"categories_nodes":[],"categories_segments":[],"categories_sizes":[],"default_left":[0,0,0,0,0,0,0,0,0,0,0,0,0,0,0,0,0,0,0,0,0,0,0,0,0,0,0,0,0,0,0,0,0,0,0,0,0,0,0,0,0,0,0,0,0,0,0,0,0,0,0,0,0,0,0,0,0,0,0,0,0,0,0,0,0,0,0,0,0,0,0,0,0,0,0,0,0,0,0,0,0,0,0,0,0,0,0,0,0],"id":9,"left_children":[1,3,5,7,9,11,-1,13,15,17,19,21,23,25,27,29,31,-1,33,35,37,39,41,43,45,47,49,51,53,55,57,59,61,63,65,67,-1,69,71,73,75,77,79,81,83,85,87,-1,-1,-1,-1,-1,-1,-1,-1,-1,-1,-1,-1,-1,-1,-1,-1,-1,-1,-1,-1,-1,-1,-1,-1,-1,-1,-1,-1,-1,-1,-1,-1,-1,-1,-1,-1,-1,-1,-1,-1,-1,-1],"loss_changes":[1.3530945E5,1.7118984E3,3.406967E4,1.2868018E3,1.930625E2,1.535059E4,0E0,9.873037E2,1.4360923E3,5.234375E1,4.5767578E2,1.0526139E4,6.034961E2,6.300293E1,7.508639E2,1.8855603E3,2.798623E2,0E0,1.07671875E2,1.2709739E3,5.0381836E2,3.1249766E3,5.956553E3,2.087752E3,9.152734E1,1.5908374E2,8.296875E0,4.5020618E2,1.8497614E2,1.1965563E3,8.286133E-1,2.6023486E2,4.8927014E2,2.0200928E2,1.3379297E2,3.2518103E2,0E0,1.9672615E3,3.540918E2,7.5762976E2,3.5827734E2,3.0093447E3,4.8361694E3,3.35521E2,1.5132568E2,1.6994683E3,1.6765625E1,0E0,0E0,0E0,0E0,0E0,0E0,0E0,0E0,0E0,0E0,0E0,0E0,0E0,0E0,0E0,0E0,0E0,0E0,0E0,0E0,0E0,0E0,0E0,0E0,0E0,0E0,0E0,0E0,0E0,0E0,0E0,0E0,0E0,0E0,0E0,0E0,0E0,0E0,0E0,0E0,0E0,0E0],"parents":[2147483647,0,0,1,1,2,2,3,3,4,4,5,5,7,7,8,8,9,9,10,10,11,11,12,12,13,13,14,14,15,15,16,16,18,18,19,19,20,20,21,21,22,22,23,23,24,24,25,25,26,26,27,27,28,28,29,29,30,30,31,31,32,32,33,33,34,34,35,35,37,37,38,38,39,39,40,40,41,41,42,42,43,43,44,44,45,45,46,46],"right_children":[2,4,6,8,10,12,-1,14,16,18,20,22,24,26,28,30,32,-1,34,36,38,40,42,44,46,48,50,52,54,56,58,60,62,64,66,68,-1,70,72,74,76,78,80,82,84,86,88,-1,-1,-1,-1,-1,-1,-1,-1,-1,-1,-1,-1,-1,-1,-1,-1,-1,-1,-1,-1,-1,-1,-1,-1,-1,-1,-1,-1,-1,-1,-1,-1,-1,-1,-1,-1,-1,-1,-1,-1,-1,-1],"split_conditions":[0E0,3.9E1,1E0,-1E-2,1.2215556E1,1.2590513E1,-3.092867E-1,1E0,2.0372681E-10,1E0,1.2228528E1,-1.0000001E-2,1.2985291E1,9E0,-4.430542E4,8.443332E0,1.5882232E1,-3.0961898E-1,-9.313226E-10,9.4E1,7.5766506E0,1E0,1E0,1.3033627E1,1.3381053E1,1.2099034E1,1E0,9E0,1.1697777E1,1.4477947E1,1.5882232E1,7.5766506E0,1.5935315E1,1.3076076E1,7.5766506E0,4.7E1,-3.1075767E-1,3.9318256E0,1E-2,1.39201765E1,7.5766506E0,1.0000001E-2,1.2599698E1,-2.1480623E5,1.29587965E1,1.34007015E1,4.5474735E-13,-3.1300732E-1,6.955662E-3,-3.0967435E-1,-3.349506E-1,1.8868743E-1,-3.3878294E-1,-4.170916E-1,4.6160546E-1,5.1229313E-2,-3.20073E-1,-3.1191063E-1,-3.6513534E-1,-1.1091361E-1,-3.186954E-1,2.8492945E-1,-3.1658447E-1,-1.651289E-1,-3.098062E-1,-2.459402E-1,-3.0990556E-1,-3.0241495E-1,7.034095E-1,3.210181E-1,-2.611671E-1,-3.1021726E-1,-2.0879143E-1,-4.509746E-3,-6.318465E-1,3.0984697E-1,-6.1259747E-1,-5.3674597E-1,1.1359037E-1,6.772088E-2,-4.047839E-1,3.0840665E-1,1.9891866E-1,-4.0593487E-1,-1.10192E0,2.8684345E-1,-9.596051E-1,3.0727267E-1,1.0740807E-1],"split_indices":[8,0,7,9,1,1,0,5,9,4,1,9,1,0,8,2,3,0,9,0,3,5,4,2,1,1,4,0,1,3,3,3,3,3,3,0,0,2,9,3,3,9,2,9,1,2,8,0,0,0,0,0,0,0,0,0,0,0,0,0,0,0,0,0,0,0,0,0,0,0,0,0,0,0,0,0,0,0,0,0,0,0,0,0,0,0,0,0,0],"split_type":[0,0,0,0,0,0,0,0,0,0,0,0,0,0,0,0,0,0,0,0,0,0,0,0,0,0,0,0,0,0,0,0,0,0,0,0,0,0,0,0,0,0,0,0,0,0,0,0,0,0,0,0,0,0,0,0,0,0,0,0,0,0,0,0,0,0,0,0,0,0,0,0,0,0,0,0,0,0,0,0,0,0,0,0,0,0,0,0,0],"sum_hessian":[3.1450306E5,1.3989588E5,1.7460719E5,2.686424E4,1.1303164E5,1.5918906E5,1.5418129E4,1.2301313E4,1.4562927E4,7.8258516E4,3.4773125E4,1.0371989E5,5.546917E4,1.1326103E4,9.7521045E2,9.055212E3,5.507715E3,5.11874E4,2.7071113E4,7.0934503E2,3.406378E4,2.274954E4,8.097035E4,1.0648808E4,4.4820363E4,6.672939E2,1.0658809E4,6.694629E2,3.057475E2,6.7762026E3,2.279009E3,5.014008E3,4.9370715E2,3.51105E3,2.3560064E4,2.2357986E2,4.857652E2,5.348412E3,2.871537E4,2.403751E3,2.034579E4,3.2333337E3,7.7737016E4,1.0262238E4,3.8656924E2,8.653558E3,3.616681E4,4.680987E2,1.991952E2,9.112691E3,1.546118E3,2.1283653E2,4.566264E2,2.2568558E1,2.8317896E2,5.876351E3,8.998516E2,2.2172834E3,6.172547E1,6.204801E2,4.3935273E3,2.1371391E2,2.7999323E2,1.6005656E3,1.9104845E3,3.477572E3,2.0082492E4,3.3506607E1,1.9007326E2,5.8585944E2,4.7625527E3,2.5172588E4,3.54278E3,2.2168E3,1.8695102E2,2.030871E4,3.707773E1,2.3542363E3,8.7909753E2,7.573695E4,2.0000603E3,4.4747363E3,5.787502E3,3.565334E2,3.0035862E1,8.554914E3,9.8642876E1,3.6127637E4,3.9170998E1],"tree_param":{"num_deleted":"0","num_feature":"10","num_nodes":"89","size_leaf_vector":"0"}},{"base_weights":[-1.8286726E-1,-8.965682E-1,3.3447647E-1,-6.3857603E-1,-9.6295613E-1,4.4853625E-1,-3.068042E-1,-9.0753436E-1,-4.1050366E-1,-9.713361E-1,-6.121221E-1,2.4391104E-1,9.4124734E-1,-9.7844976E-1,-2.1990678E-1,-2.0874818E-1,-7.675448E-1,-9.122998E-1,-1.0122668E0,8.527486E-1,-8.21378E-1,8.642907E-1,9.808234E-2,7.719945E-1,1.0057089E0,-7.278533E-1,-3.0727375E-1,1.5610017E-1,-3.1655923E-1,2.6954368E-1,-6.6748863E-1,-9.664436E-1,-1.1910275E-2,-8.1886846E-1,-3.0817965E-1,-3.0691683E-1,-7.724798E-1,1.4696891E0,-3.1533045E-1,-3.084027E-1,1.0132619E0,-1.1937698E-1,1.0174227E0,4.9227664E-1,-7.950381E-2,8.215467E-1,-1.9272633E0,7.523891E-1,1.0096438E0,-3.093654E-1,2.9478317E-1,3.3066666E-1,-2.2187789E-1,2.5714202E-2,2.6827488E0,3.0228478E-1,-2.4824144E-1,2.3638338E-1,-3.1416732E-1,5.5720115E-1,-1.6668238E-1,-2.673107E-1,1.4353304E-1,-3.077904E-1,6.756862E-2,-3.0877048E-1,4.7461358E-1,3.0999416E-1,-1.998078E-1,2.8044218E-1,-1.1025985E-1,3.0694875E-1,-5.251075E-1,6.5419255E-3,3.120126E-1,-1.179942E-1,4.453005E-2,2.727582E-1,1.4076446E-1,-4.686126E-1,-1.5841593E0,-1.9929701E0,2.7637643E-1,3.03054E-1,-3.198139E-1],"categories":[],"categories_nodes":[],"categories_segments":[],"categories_sizes":[],"default_left":[0,0,0,0,0,0,0,0,0,0,0,0,0,0,0,0,0,0,0,0,0,0,0,0,0,0,0,0,0,0,0,0,0,0,0,0,0,0,0,0,0,0,0,0,0,0,0,0,0,0,0,0,0,0,0,0,0,0,0,0,0,0,0,0,0,0,0,0,0,0,0,0,0,0,0,0,0,0,0,0,0,0,0,0,0],"id":10,"left_children":[1,3,5,7,9,11,-1,13,15,17,19,21,23,25,27,29,31,33,35,37,39,41,43,45,47,49,-1,51,-1,53,55,57,59,61,-1,-1,63,65,-1,-1,67,69,71,73,75,77,79,81,83,-1,-1,-1,-1,-1,-1,-1,-1,-1,-1,-1,-1,-1,-1,-1,-1,-1,-1,-1,-1,-1,-1,-1,-1,-1,-1,-1,-1,-1,-1,-1,-1,-1,-1,-1,-1],"loss_changes":[9.447423E4,1.8410938E3,2.2963207E4,1.3497549E3,2.5082812E2,1.3796252E4,0E0,4.9223828E2,8.579221E2,2.0089844E2,6.1307874E2,8.747205E3,4.373203E2,1.043125E2,2.9709723E2,1.6704558E3,6.463313E2,3.6659766E2,1.2680078E2,2.9541852E2,6.639088E2,2.772037E3,5.480402E3,1.4834902E3,2.8220703E1,7.3676135E2,0E0,5.5403455E2,0E0,5.9422397E3,1.0422249E3,4.8329736E2,9.1277997E2,1.7676826E3,0E0,0E0,5.382998E2,5.480081E1,0E0,0E0,6.665329E0,6.490463E2,2.5475781E2,6.2661006E3,3.8607068E3,3.355669E2,2.3671735E2,5.664312E2,3.2939453E1,0E0,0E0,0E0,0E0,0E0,0E0,0E0,0E0,0E0,0E0,0E0,0E0,0E0,0E0,0E0,0E0,0E0,0E0,0E0,0E0,0E0,0E0,0E0,0E0,0E0,0E0,0E0,0E0,0E0,0E0,0E0,0E0,0E0,0E0,0E0,0E0],"parents":[2147483647,0,0,1,1,2,2,3,3,4,4,5,5,7,7,8,8,9,9,10,10,11,11,12,12,13,13,14,14,15,15,16,16,17,17,18,18,19,19,20,20,21,21,22,22,23,23,24,24,25,25,27,27,29,29,30,30,31,31,32,32,33,33,36,36,37,37,40,40,41,41,42,42,43,43,44,44,45,45,46,46,47,47,48,48],"right_children":[2,4,6,8,10,12,-1,14,16,18,20,22,24,26,28,30,32,34,36,38,40,42,44,46,48,50,-1,52,-1,54,56,58,60,62,-1,-1,64,66,-1,-1,68,70,72,74,76,78,80,82,84,-1,-1,-1,-1,-1,-1,-1,-1,-1,-1,-1,-1,-1,-1,-1,-1,-1,-1,-1,-1,-1,-1,-1,-1,-1,-1,-1,-1,-1,-1,-1,-1,-1,-1,-1,-1],"split_conditions":[0E0,3.9E1,1E0,1E0,1.3996891E1,1.26828575E1,-3.068042E-1,1.3839274E1,3.9318256E0,3.9318256E0,4.4E1,-1.0000001E-2,1.3247485E1,-3.8854844E5,1.4072006E1,1.2892446E1,1.4460564E1,2.32E2,1.3151365E1,1.2473107E1,1.4063252E1,1E0,1.29E2,1.3259628E1,1.3E1,-4.430542E4,-3.0727375E-1,3.9318256E0,-3.1655923E-1,1.2876687E1,-5.0627778E5,8E0,1.4477947E1,2.3E2,-3.0817965E-1,-3.0691683E-1,1.3191471E1,1.2454709E1,-3.1533045E-1,-3.084027E-1,7.5766506E0,8E0,7.5766506E0,4.7E1,1.097996E1,1.278184E1,1.3196184E1,1.3699841E1,4.5474735E-13,-3.093654E-1,2.9478317E-1,3.3066666E-1,-2.2187789E-1,2.5714202E-2,2.6827488E0,3.0228478E-1,-2.4824144E-1,2.3638338E-1,-3.1416732E-1,5.5720115E-1,-1.6668238E-1,-2.673107E-1,1.4353304E-1,-3.077904E-1,6.756862E-2,-3.0877048E-1,4.7461358E-1,3.0999416E-1,-1.998078E-1,2.8044218E-1,-1.1025985E-1,3.0694875E-1,-5.251075E-1,6.5419255E-3,3.120126E-1,-1.179942E-1,4.453005E-2,2.727582E-1,1.4076446E-1,-4.686126E-1,-1.5841593E0,-1.9929701E0,2.7637643E-1,3.03054E-1,-3.198139E-1],"split_indices":[8,0,7,4,1,1,0,1,2,2,0,9,1,9,3,3,3,0,1,3,2,5,0,2,0,8,0,2,0,3,8,0,3,0,0,0,2,3,0,0,3,0,3,0,1,3,1,1,8,0,0,0,0,0,0,0,0,0,0,0,0,0,0,0,0,0,0,0,0,0,0,0,0,0,0,0,0,0,0,0,0,0,0,0,0],"split_type":[0,0,0,0,0,0,0,0,0,0,0,0,0,0,0,0,0,0,0,0,0,0,0,0,0,0,0,0,0,0,0,0,0,0,0,0,0,0,0,0,0,0,0,0,0,0,0,0,0,0,0,0,0,0,0,0,0,0,0,0,0,0,0,0,0,0,0,0,0,0,0,0,0,0,0,0,0,0,0,0,0,0,0,0,0],"sum_hessian":[2.5586738E5,1.07527375E5,1.4834E5,2.2008844E4,8.551853E4,1.3684019E5,1.1499813E4,1.0097826E4,1.1911017E4,8.352177E4,1.9967578E3,9.668708E4,4.01531E4,9.153407E3,9.4441907E2,7.6115146E3,4.2995015E3,3.4206812E4,4.931496E4,2.4919852E2,1.7475592E3,1.8401043E4,7.828604E4,1.1078334E4,2.9074766E4,1.4169155E3,7.736492E3,6.5181635E2,2.9260272E2,3.7265513E3,3.8849636E3,3.4033816E3,8.961201E2,1.8875236E4,1.5331578E4,4.7188426E4,2.1265332E3,1.8838167E2,6.081684E1,1.5710549E3,1.7650433E2,2.4787322E3,1.5922312E4,2.431388E4,5.3972156E4,1.0879311E4,1.9902357E2,4.4765576E2,2.862711E4,1.2038076E3,2.1310791E2,3.1687268E2,3.3494366E2,3.6501926E3,7.635868E1,3.3822888E2,3.5467346E3,1.4942534E2,3.253956E3,2.0137416E2,6.94746E2,1.7880867E4,9.943683E2,1.6956823E3,4.3085092E2,7.754411E0,1.8062726E2,1.7480173E2,1.7025977E0,4.7178558E2,2.0069467E3,1.5889989E4,3.232216E1,1.3080345E4,1.1233536E4,2.2708188E4,3.126397E4,8.710803E3,2.1685078E3,1.807978E2,1.8225775E1,9.1373415E0,4.3851843E2,2.862023E4,6.880606E0],"tree_param":{"num_deleted":"0","num_feature":"10","num_nodes":"85","size_leaf_vector":"0"}},{"base_weights":[-1.6345885E-1,-8.621048E-1,2.84429E-1,-5.91129E-1,-9.3833816E-1,-7.280457E-3,7.0398074E-1,-9.0279967E-1,-3.8805637E-1,-8.590057E-1,-9.961272E-1,1.3685744E-1,-1.5445707E0,4.530758E-1,9.639238E-1,-1.0034893E0,4.2691514E-2,-1.7947145E-1,-8.167883E-1,-7.360743E-1,-3.061871E-1,-3.0508515E-1,-6.910221E-1,2.5378805E-1,-3.0497876E-1,-1.1404133E0,-3.2446198E0,5.0636697E-1,-1.6672726E0,8.397111E-1,1.0074478E0,-5.781945E-1,-1.0350442E0,-5.1176494E-1,1.0301597E0,-6.965446E-4,-3.0817595E-1,-9.132675E-1,9.519389E-3,-8.1587887E-1,2.7873325E-1,-3.056615E-1,2.783389E-1,8.753787E-2,6.15687E-1,-1.2594424E0,7.9385614E-1,-8.277378E0,-2.5291557E0,9.816247E-1,3.403526E-1,-2.3753216E0,-1.2133377E0,8.8220376E-1,-3.0988412E0,7.6102847E-1,1.0108004E0,-3.0975237E-1,3.727215E-2,-3.0550137E-1,-3.3588278E-1,1.4073421E-1,-3.2777247E-1,3.593698E-1,-5.322313E-1,-2.2529718E-2,5.9329516E-1,-4.657866E-2,-3.1677294E-1,-3.3548188E-1,2.988104E-1,-3.0594856E-1,-1.1545982E-1,-3.178047E-1,3.788562E-1,3.9122304E-1,-3.1392395E-1,8.325179E-2,-6.054914E-1,1.9008072E-1,-9.6013814E-1,-3.2586372E-1,-5.0248414E-1,-4.2670724E-1,5.0214666E-1,-2.7283964E0,-3.187397E-1,-1.1823795E0,-4.6895766E-1,2.980197E-1,-2.8352264E-1,2.58762E-1,2.112507E-2,-8.564796E-1,4.9165916E-2,-3.1198534E-1,-4.1372326E-1,3.0525318E-1,2.2863878E-1,-6.4698076E-1,-4.690368E0,-1.4700043E0,2.5514984E-1,3.033891E-1,-3.3684808E-1],"categories":[],"categories_nodes":[],"categories_segments":[],"categories_sizes":[],"default_left":[0,0,0,0,0,0,0,0,0,0,0,0,0,0,0,0,0,0,0,0,0,0,0,0,0,0,0,0,0,0,0,0,0,0,0,0,0,0,0,0,0,0,0,0,0,0,0,0,0,0,0,0,0,0,0,0,0,0,0,0,0,0,0,0,0,0,0,0,0,0,0,0,0,0,0,0,0,0,0,0,0,0,0,0,0,0,0,0,0,0,0,0,0,0,0,0,0,0,0,0,0,0,0,0,0],"id":11,"left_children":[1,3,5,7,9,11,13,15,17,19,21,23,25,27,29,31,33,35,37,39,-1,-1,41,43,-1,45,47,49,51,53,55,57,59,61,63,65,-1,67,69,71,73,-1,75,77,79,81,83,85,87,89,91,93,95,97,99,101,103,-1,-1,-1,-1,-1,-1,-1,-1,-1,-1,-1,-1,-1,-1,-1,-1,-1,-1,-1,-1,-1,-1,-1,-1,-1,-1,-1,-1,-1,-1,-1,-1,-1,-1,-1,-1,-1,-1,-1,-1,-1,-1,-1,-1,-1,-1,-1,-1],"loss_changes":[6.660261E4,1.7170508E3,1.5873481E4,1.1552627E3,2.966328E2,1.6952646E4,3.4688867E3,6.857246E2,9.8865247E2,5.427285E2,2.3777344E2,9.434557E3,4.50255E3,3.0595425E3,1.4039648E2,8.6757324E1,3.8058496E2,1.1275476E3,2.884839E2,1.2587861E3,0E0,0E0,7.63417E2,3.82116E3,0E0,1.2213174E3,4.5129717E3,2.083109E3,2.1049683E2,1.1382593E3,1.5207031E1,1.4433049E2,7.4189453E0,2.5415425E2,1.1969473E2,9.046442E2,0E0,3.5018042E2,4.2313348E2,1.2661104E3,1.4942919E3,0E0,8.2709283E2,1.741064E4,1.3688276E3,3.575996E2,6.0279004E2,9.118721E2,1.4995688E3,1.5600684E2,2.758701E3,3.1504163E2,1.0249756E1,1.0829443E2,8.243079E2,1.3770709E2,2.134961E1,0E0,0E0,0E0,0E0,0E0,0E0,0E0,0E0,0E0,0E0,0E0,0E0,0E0,0E0,0E0,0E0,0E0,0E0,0E0,0E0,0E0,0E0,0E0,0E0,0E0,0E0,0E0,0E0,0E0,0E0,0E0,0E0,0E0,0E0,0E0,0E0,0E0,0E0,0E0,0E0,0E0,0E0,0E0,0E0,0E0,0E0,0E0,0E0],"parents":[2147483647,0,0,1,1,2,2,3,3,4,4,5,5,6,6,7,7,8,8,9,9,10,10,11,11,12,12,13,13,14,14,15,15,16,16,17,17,18,18,19,19,22,22,23,23,25,25,26,26,27,27,28,28,29,29,30,30,31,31,32,32,33,33,34,34,35,35,37,37,38,38,39,39,40,40,42,42,43,43,44,44,45,45,46,46,47,47,48,48,49,49,50,50,51,51,52,52,53,53,54,54,55,55,56,56],"right_children":[2,4,6,8,10,12,14,16,18,20,22,24,26,28,30,32,34,36,38,40,-1,-1,42,44,-1,46,48,50,52,54,56,58,60,62,64,66,-1,68,70,72,74,-1,76,78,80,82,84,86,88,90,92,94,96,98,100,102,104,-1,-1,-1,-1,-1,-1,-1,-1,-1,-1,-1,-1,-1,-1,-1,-1,-1,-1,-1,-1,-1,-1,-1,-1,-1,-1,-1,-1,-1,-1,-1,-1,-1,-1,-1,-1,-1,-1,-1,-1,-1,-1,-1,-1,-1,-1,-1,-1],"split_conditions":[0E0,3.9E1,1.1866089E1,-1E-2,3.9318256E0,1.1870351E1,1.2933664E1,1E0,2.0372681E-10,2.32E2,1.3151365E1,1E0,1.163048E1,1.2928167E1,1.3467688E1,9E0,-4.430542E4,8.443332E0,1.5882232E1,2.3E2,-3.061871E-1,-3.0508515E-1,1.3191471E1,1.1163786E1,-3.0497876E-1,2.1038694E5,1.1978676E1,-1.4009148E5,1.3033627E1,1.3479014E1,1.2E1,1.2099034E1,1E0,7.5766506E0,1.3195201E1,1.7462298E-10,-3.0817595E-1,7.5766506E0,1.1225759E1,1.2215556E1,1E0,-3.056615E-1,7.5766506E0,1.1172644E1,6.970977E4,1.1279259E1,1.2698517E1,4.5474735E-13,1.2233031E1,1.3314456E1,1.2126223E1,1.2909755E1,1.271598E1,-4.031342E5,1.3381053E1,1.3699841E1,4.5474735E-13,-3.0975237E-1,3.727215E-2,-3.0550137E-1,-3.3588278E-1,1.4073421E-1,-3.2777247E-1,3.593698E-1,-5.322313E-1,-2.2529718E-2,5.9329516E-1,-4.657866E-2,-3.1677294E-1,-3.3548188E-1,2.988104E-1,-3.0594856E-1,-1.1545982E-1,-3.178047E-1,3.788562E-1,3.9122304E-1,-3.1392395E-1,8.325179E-2,-6.054914E-1,1.9008072E-1,-9.6013814E-1,-3.2586372E-1,-5.0248414E-1,-4.2670724E-1,5.0214666E-1,-2.7283964E0,-3.187397E-1,-1.1823795E0,-4.6895766E-1,2.980197E-1,-2.8352264E-1,2.58762E-1,2.112507E-2,-8.564796E-1,4.9165916E-2,-3.1198534E-1,-4.1372326E-1,3.0525318E-1,2.2863878E-1,-6.4698076E-1,-4.690368E0,-1.4700043E0,2.5514984E-1,3.033891E-1,-3.3684808E-1],"split_indices":[8,0,1,9,2,2,1,5,9,0,1,7,1,2,1,0,8,2,3,0,0,0,2,1,0,9,2,9,2,2,0,1,4,3,3,9,0,3,2,1,4,0,3,2,9,1,2,8,2,3,2,1,1,9,1,1,8,0,0,0,0,0,0,0,0,0,0,0,0,0,0,0,0,0,0,0,0,0,0,0,0,0,0,0,0,0,0,0,0,0,0,0,0,0,0,0,0,0,0,0,0,0,0,0,0],"split_type":[0,0,0,0,0,0,0,0,0,0,0,0,0,0,0,0,0,0,0,0,0,0,0,0,0,0,0,0,0,0,0,0,0,0,0,0,0,0,0,0,0,0,0,0,0,0,0,0,0,0,0,0,0,0,0,0,0,0,0,0,0,0,0,0,0,0,0,0,0,0,0,0,0,0,0,0,0,0,0,0,0,0,0,0,0,0,0,0,0,0,0,0,0,0,0,0,0,0,0,0,0,0,0,0,0],"sum_hessian":[2.1284389E5,8.314607E4,1.2969783E5,1.8257506E4,6.4888566E4,7.650545E4,5.3192375E4,7.2014556E3,1.1056051E4,2.7353574E4,3.7534992E4,6.994797E4,6.5574814E3,2.7068135E4,2.612424E4,6.5082964E3,6.931592E2,7.438514E3,3.6175366E3,1.55394E4,1.1814174E4,3.5134727E4,2.400266E3,6.3510418E4,6.4375493E3,5.299328E3,1.2581532E3,2.6405248E4,6.6288727E2,6.7839453E3,1.9340295E4,4.5086652E2,6.0574297E3,4.442165E2,2.4894269E2,6.1439233E3,1.2945913E3,3.239222E3,3.783148E2,1.4406655E4,1.1327448E3,1.7935984E3,6.0666766E2,4.351953E4,1.9990887E4,4.9924565E3,3.0687186E2,1.5528308E2,1.1028701E3,6.8345938E3,1.9570654E4,2.5730673E2,4.0558057E2,6.7123027E3,7.1642365E1,2.6265253E2,1.9077643E4,2.7350314E2,1.7736336E2,5.069053E3,9.883765E2,1.652807E2,2.789358E2,2.3543289E2,1.3509798E1,5.922162E3,2.2176115E2,5.133503E2,2.7258716E3,1.7645566E2,2.0185913E2,9.778318E3,4.6283374E3,4.8001074E2,6.52734E2,3.419308E2,2.6473685E2,3.991928E4,3.600251E3,1.9898305E4,9.258107E1,3.5260205E3,1.466436E3,8.704094E1,2.1983092E2,1.3924898E2,1.6034105E1,4.4673026E2,6.5613983E2,6.793562E3,4.103158E1,6.66844E3,1.2902214E4,2.1632292E2,4.098381E1,2.0177296E2,2.038076E2,3.1524597E3,3.5598433E3,6.7723976E1,3.9183905E0,3.2500076E0,2.5940253E2,1.9073729E4,3.9127924E0],"tree_param":{"num_deleted":"0","num_feature":"10","num_nodes":"105","size_leaf_vector":"0"}},{"base_weights":[-1.4558926E-1,-8.1835175E-1,2.4463199E-1,-5.1922536E-1,-9.116023E-1,7.331881E-2,8.920718E-1,-8.662856E-1,-3.017918E-1,-8.090376E-1,-9.905804E-1,1.5700631E-1,-3.0363798E-1,6.618952E-1,9.8151726E-1,-9.275245E-1,2.5907734E-1,6.809405E-2,-4.946035E-1,-6.6649014E-1,-3.046906E-1,-3.0374297E-1,-6.7685896E-1,7.9664403E-1,4.5038395E-2,7.218987E-1,-1.8836914E0,8.443888E-1,9.9731916E-1,-3.0417994E-1,-6.615074E-1,5.461969E-1,-3.104587E-1,5.643988E-1,-8.421792E-1,-1.0606041E-1,-7.9389983E-1,-4.70914E-1,-3.0511573E-1,-3.040893E-1,2.3845512E-1,-1.2523723E-1,1.0055164E0,8.260014E-1,-3.2754418E-2,-8.190436E-1,7.616645E-1,-3.2660997E-1,-2.3767478E0,9.474639E-1,-2.5874465E0,7.007855E-1,1.0014595E0,5.306721E-2,-3.0883005E-1,-6.334862E-2,3.7730235E-1,-3.981164E-1,2.6580468E-1,2.6483524E-1,-3.1360665E-1,-1.1172139E-1,2.7619293E0,6.548433E-2,-2.8104824E-1,4.5863247E-1,-2.0510918E-1,3.300483E-1,-3.0976665E-1,2.2370036E-1,-9.6677125E-2,3.0357653E-1,-4.7253984E-1,-1.0193551E-1,2.785756E-1,-8.6373484E-1,1.7620716E-2,1.4878757E-1,-1.519939E0,3.025188E-1,1.8223755E-1,-7.9859644E-1,-2.984976E-1,5.54961E-2,2.8735718E-1,-4.0387747E-1,-9.349503E-1,2.7882245E-1,-4.5562285E-1,3.0058932E-1,-3.220061E-1],"categories":[],"categories_nodes":[],"categories_segments":[],"categories_sizes":[],"default_left":[0,0,0,0,0,0,0,0,0,0,0,0,0,0,0,0,0,0,0,0,0,0,0,0,0,0,0,0,0,0,0,0,0,0,0,0,0,0,0,0,0,0,0,0,0,0,0,0,0,0,0,0,0,0,0,0,0,0,0,0,0,0,0,0,0,0,0,0,0,0,0,0,0,0,0,0,0,0,0,0,0,0,0,0,0,0,0,0,0,0,0],"id":12,"left_children":[1,3,5,7,9,11,13,15,17,19,21,23,-1,25,27,29,31,33,35,37,-1,-1,39,41,43,45,47,49,51,-1,53,55,-1,57,59,61,63,65,-1,-1,67,69,71,73,75,77,79,-1,81,83,85,87,89,-1,-1,-1,-1,-1,-1,-1,-1,-1,-1,-1,-1,-1,-1,-1,-1,-1,-1,-1,-1,-1,-1,-1,-1,-1,-1,-1,-1,-1,-1,-1,-1,-1,-1,-1,-1,-1,-1],"loss_changes":[4.642065E4,1.8101523E3,1.2412598E4,1.164044E3,4.0003516E2,8.039032E3,4.8144336E2,4.0976904E2,6.766662E2,6.334619E2,1.9132422E2,5.884374E3,0E0,1.0027422E3,3.569336E1,1.2887842E2,1.1479227E2,1.469563E3,7.2517505E2,8.732954E2,0E0,0E0,5.6330804E2,2.35698E3,4.248137E3,3.9314575E2,5.6699585E1,6.210382E2,1.785254E1,0E0,4.2732355E2,1.3620615E2,0E0,1.2817161E3,4.031919E2,6.7372383E3,5.0984058E2,3.482648E3,0E0,0E0,5.4012335E2,3.8833804E2,1.6654883E2,7.5783936E2,1.6560064E4,9.0527606E2,2.3699683E2,0E0,3.381201E1,1.3282471E1,2.9464111E1,1.08703224E2,1.6688477E1,0E0,0E0,0E0,0E0,0E0,0E0,0E0,0E0,0E0,0E0,0E0,0E0,0E0,0E0,0E0,0E0,0E0,0E0,0E0,0E0,0E0,0E0,0E0,0E0,0E0,0E0,0E0,0E0,0E0,0E0,0E0,0E0,0E0,0E0,0E0,0E0,0E0,0E0],"parents":[2147483647,0,0,1,1,2,2,3,3,4,4,5,5,6,6,7,7,8,8,9,9,10,10,11,11,13,13,14,14,15,15,16,16,17,17,18,18,19,19,22,22,23,23,24,24,25,25,26,26,27,27,28,28,30,30,31,31,33,33,34,34,35,35,36,36,37,37,40,40,41,41,42,42,43,43,44,44,45,45,46,46,48,48,49,49,50,50,51,51,52,52],"right_children":[2,4,6,8,10,12,14,16,18,20,22,24,-1,26,28,30,32,34,36,38,-1,-1,40,42,44,46,48,50,52,-1,54,56,-1,58,60,62,64,66,-1,-1,68,70,72,74,76,78,80,-1,82,84,86,88,90,-1,-1,-1,-1,-1,-1,-1,-1,-1,-1,-1,-1,-1,-1,-1,-1,-1,-1,-1,-1,-1,-1,-1,-1,-1,-1,-1,-1,-1,-1,-1,-1,-1,-1,-1,-1,-1,-1],"split_conditions":[0E0,3.9E1,1.2699276E1,1E0,3.9318256E0,1E0,1.3196184E1,1.4422191E1,1.0726334E1,2.32E2,1.3151365E1,-1.0000001E-2,-3.0363798E-1,1.3191471E1,1.3381053E1,1E0,1.4072006E1,3.9318256E0,1.1647687E1,-4.056454E4,-3.046906E-1,-3.0374297E-1,1.3191471E1,1E0,9.171288E0,2E1,1.2985291E1,1.34007015E1,1.2E1,-3.0417994E-1,-1.0083418E5,1.4056639E1,-3.104587E-1,1.1447598E1,8E0,1.163048E1,-5.0627778E5,7.5766506E0,-3.0511573E-1,-3.040893E-1,7.5766506E0,9E0,7.5766506E0,1E0,9.2102585E0,1.1E1,-2.326859E5,-3.2660997E-1,1.34007015E1,2E1,1.3247485E1,1.2188738E1,4.5474735E-13,5.306721E-2,-3.0883005E-1,-6.334862E-2,3.7730235E-1,-3.981164E-1,2.6580468E-1,2.6483524E-1,-3.1360665E-1,-1.1172139E-1,2.7619293E0,6.548433E-2,-2.8104824E-1,4.5863247E-1,-2.0510918E-1,3.300483E-1,-3.0976665E-1,2.2370036E-1,-9.6677125E-2,3.0357653E-1,-4.7253984E-1,-1.0193551E-1,2.785756E-1,-8.6373484E-1,1.7620716E-2,1.4878757E-1,-1.519939E0,3.025188E-1,1.8223755E-1,-7.9859644E-1,-2.984976E-1,5.54961E-2,2.8735718E-1,-4.0387747E-1,-9.349503E-1,2.7882245E-1,-4.5562285E-1,3.0058932E-1,-3.220061E-1],"split_indices":[8,0,1,4,2,7,1,1,3,0,1,9,0,2,1,5,3,2,1,8,0,0,2,5,2,0,1,2,0,0,9,3,0,1,0,1,8,3,0,0,3,0,3,4,1,0,9,0,2,0,1,3,8,0,0,0,0,0,0,0,0,0,0,0,0,0,0,0,0,0,0,0,0,0,0,0,0,0,0,0,0,0,0,0,0,0,0,0,0,0,0],"split_type":[0,0,0,0,0,0,0,0,0,0,0,0,0,0,0,0,0,0,0,0,0,0,0,0,0,0,0,0,0,0,0,0,0,0,0,0,0,0,0,0,0,0,0,0,0,0,0,0,0,0,0,0,0,0,0,0,0,0,0,0,0,0,0,0,0,0,0,0,0,0,0,0,0,0,0,0,0,0,0,0,0,0,0,0,0,0,0,0,0,0,0],"sum_hessian":[1.7682112E5,6.4910613E4,1.119105E5,1.5427926E4,4.9482688E4,8.84956E4,2.3414904E4,5.9414287E3,9.486497E3,2.1531758E4,2.7950932E4,8.2161805E4,6.333794E3,6.554955E3,1.685995E4,5.6349663E3,3.0646243E2,3.2508274E3,6.23567E3,1.2743364E4,8.788394E3,2.612529E4,1.8256427E3,1.2238866E4,6.992294E4,6.404703E3,1.5025237E2,1.7477196E3,1.51122295E4,4.2512505E3,1.3837162E3,2.5128195E2,5.518049E1,2.1040332E3,1.1467941E3,2.713887E3,3.5217832E3,8.1813765E3,4.5619873E3,1.3345234E3,4.911193E2,2.260832E3,9.978034E3,6.3332944E3,6.3589645E4,1.6063013E2,6.2440728E3,5.874365E1,9.150873E1,1.6974603E3,5.0259293E1,2.1043953E2,1.490179E4,4.2218857E2,9.615276E2,1.22057E2,1.2922495E2,3.0531656E2,1.7987168E3,1.2049007E2,1.026304E3,2.6393591E3,7.4527626E1,4.357034E2,3.0860798E3,7.862443E2,7.3951323E3,2.9276685E2,1.9835245E2,4.1658374E2,1.8442483E3,9.953936E3,2.4098757E1,5.120404E2,5.8212544E3,1.9793502E3,6.1610293E4,1.2333028E2,3.7299854E1,2.399425E3,3.8446477E3,7.508266E1,1.6426071E1,2.3079628E1,1.6743807E3,1.6079836E1,3.4179455E1,1.9131444E2,1.9125092E1,1.4898682E4,3.1088283E0],"tree_param":{"num_deleted":"0","num_feature":"10","num_nodes":"91","size_leaf_vector":"0"}},{"base_weights":[-1.2945625E-1,-7.8381175E-1,2.0142445E-1,-5.2082354E-1,-9.0302354E-1,6.1802335E-2,8.784274E-1,-8.917382E-1,-3.238944E-1,-9.869676E-1,-7.810917E-1,1.2587643E-1,-3.0265635E-1,6.2303424E-1,9.70823E-1,-9.9684066E-1,9.682901E-4,-1.9591135E-1,-8.6572915E-1,-6.8883896E-1,-3.0326694E-1,-2.9526645E-1,-8.825985E-1,7.502359E-1,3.5453793E-2,6.8507785E-1,-1.5045435E0,8.5534066E-1,9.976646E-1,-5.0045127E-1,-1.0290135E0,-4.870494E-1,8.937701E-1,-1.205097E-1,-1.0763607E0,-1.4539692E-1,-1.062272E0,-3.0309498E-1,1.1228323E0,1.3194984E0,-3.0284244E-1,-4.851426E-1,-9.387243E-1,-8.5485086E-2,9.9987656E-1,5.6953514E-1,-6.857133E-2,1.0018241E0,5.127815E-1,-3.1981725E-1,-1.678094E0,8.937281E-1,-2.4348967E0,9.9922943E-1,1.1492273E-1,-3.1831113E-1,6.550884E-2,-3.0307192E-1,-3.3989787E-1,1.2535566E-1,-3.2092467E-1,-3.8263938E-1,3.2575408E-1,3.682347E-1,-6.949109E-2,-3.446441E-1,-3.1355712E-1,-4.0414745E-1,1.9672978E-1,-3.8015705E-1,-3.141306E-1,-3.0206028E-1,3.7380677E-1,-5.00871E-1,5.03738E-1,3.2766793E0,-3.042605E-1,-1.5870342E-1,-3.03927E-1,2.995388E-1,-6.7549594E-2,3.019389E-1,-4.4484034E-1,9.503937E-2,2.914318E-1,-1.0774537E0,2.2148173E-2,3.0158523E-1,-6.0199714E-1,-6.6604286E-1,1.8140815E-1,-6.302526E-1,-4.4037628E-1,2.7397552E-1,2.7294269E-2,-4.653626E-1,-2.1051967E0,2.2217165E-1,3.0091155E-1,2.5735238E-1,-3.5175657E-1],"categories":[],"categories_nodes":[],"categories_segments":[],"categories_sizes":[],"default_left":[0,0,0,0,0,0,0,0,0,0,0,0,0,0,0,0,0,0,0,0,0,0,0,0,0,0,0,0,0,0,0,0,0,0,0,0,0,0,0,0,0,0,0,0,0,0,0,0,0,0,0,0,0,0,0,0,0,0,0,0,0,0,0,0,0,0,0,0,0,0,0,0,0,0,0,0,0,0,0,0,0,0,0,0,0,0,0,0,0,0,0,0,0,0,0,0,0,0,0,0,0],"id":13,"left_children":[1,3,5,7,9,11,13,15,17,19,21,23,-1,25,27,29,31,33,35,37,-1,39,41,43,45,47,49,51,53,55,57,59,61,63,65,67,69,-1,71,73,-1,75,77,79,81,83,85,87,89,-1,91,93,95,97,99,-1,-1,-1,-1,-1,-1,-1,-1,-1,-1,-1,-1,-1,-1,-1,-1,-1,-1,-1,-1,-1,-1,-1,-1,-1,-1,-1,-1,-1,-1,-1,-1,-1,-1,-1,-1,-1,-1,-1,-1,-1,-1,-1,-1,-1,-1],"loss_changes":[3.2771043E4,1.5931719E3,9.502153E3,1.1579897E3,3.5721875E2,5.7173623E3,4.0496875E2,5.159263E2,7.1821875E2,1.4700977E2,7.03249E2,4.4394053E3,0E0,6.041356E2,3.8265625E1,7.805176E1,2.5323102E2,5.5628986E2,2.8004126E2,8.989487E2,0E0,2.8464824E3,2.6276855E2,2.0754458E3,3.816219E3,2.4180249E2,8.086761E0,3.036604E2,1.4020508E1,1.2168044E2,7.8725586E0,1.9859601E2,8.697151E1,1.1569071E3,2.921753E-1,4.104663E2,3.5061035E0,0E0,6.2329773E1,8.165137E2,0E0,8.83548E3,3.1446582E2,3.467827E2,1.2674121E2,1.1371211E3,2.8841594E4,1.8289429E1,7.242285E2,0E0,5.0222473E0,3.690674E1,1.01674225E2,9.322266E0,1.9407837E1,0E0,0E0,0E0,0E0,0E0,0E0,0E0,0E0,0E0,0E0,0E0,0E0,0E0,0E0,0E0,0E0,0E0,0E0,0E0,0E0,0E0,0E0,0E0,0E0,0E0,0E0,0E0,0E0,0E0,0E0,0E0,0E0,0E0,0E0,0E0,0E0,0E0,0E0,0E0,0E0,0E0,0E0,0E0,0E0,0E0,0E0],"parents":[2147483647,0,0,1,1,2,2,3,3,4,4,5,5,6,6,7,7,8,8,9,9,10,10,11,11,13,13,14,14,15,15,16,16,17,17,18,18,19,19,21,21,22,22,23,23,24,24,25,25,26,26,27,27,28,28,29,29,30,30,31,31,32,32,33,33,34,34,35,35,36,36,38,38,39,39,41,41,42,42,43,43,44,44,45,45,46,46,47,47,48,48,50,50,51,51,52,52,53,53,54,54],"right_children":[2,4,6,8,10,12,14,16,18,20,22,24,-1,26,28,30,32,34,36,38,-1,40,42,44,46,48,50,52,54,56,58,60,62,64,66,68,70,-1,72,74,-1,76,78,80,82,84,86,88,90,-1,92,94,96,98,100,-1,-1,-1,-1,-1,-1,-1,-1,-1,-1,-1,-1,-1,-1,-1,-1,-1,-1,-1,-1,-1,-1,-1,-1,-1,-1,-1,-1,-1,-1,-1,-1,-1,-1,-1,-1,-1,-1,-1,-1,-1,-1,-1,-1,-1,-1],"split_conditions":[0E0,9.4E1,1.2750346E1,-1E-2,1E0,1E0,1.3196184E1,1E0,1.0000001E-2,-5.342959E5,7.5766506E0,-1.0000001E-2,-3.0265635E-1,1.3191471E1,1.3575114E1,9E0,-4.430542E4,-2.243525E4,7.5766506E0,1E0,-3.0326694E-1,3.9318256E0,-3.2737844E5,1E0,9.886596E0,-3.3679878E5,1.2985291E1,1.3647064E1,4.5474735E-13,-8.69434E3,1E0,9E0,1.1697777E1,1.059165E1,1.0726334E1,3.663777E5,1.06291E1,-3.0309498E-1,1.3191471E1,1.86E2,-3.0284244E-1,1.271598E1,-9.313226E-10,8.101981E0,7.5766506E0,9.330641E0,9.878657E0,1.3135532E1,1E0,-3.1981725E-1,1.3259628E1,1.3563714E1,1.3467688E1,1.2E1,-5.116354E5,-3.1831113E-1,6.550884E-2,-3.0307192E-1,-3.3989787E-1,1.2535566E-1,-3.2092467E-1,-3.8263938E-1,3.2575408E-1,3.682347E-1,-6.949109E-2,-3.446441E-1,-3.1355712E-1,-4.0414745E-1,1.9672978E-1,-3.8015705E-1,-3.141306E-1,-3.0206028E-1,3.7380677E-1,-5.00871E-1,5.03738E-1,3.2766793E0,-3.042605E-1,-1.5870342E-1,-3.03927E-1,2.995388E-1,-6.7549594E-2,3.019389E-1,-4.4484034E-1,9.503937E-2,2.914318E-1,-1.0774537E0,2.2148173E-2,3.0158523E-1,-6.0199714E-1,-6.6604286E-1,1.8140815E-1,-6.302526E-1,-4.4037628E-1,2.7397552E-1,2.7294269E-2,-4.653626E-1,-2.1051967E0,2.2217165E-1,3.0091155E-1,2.5735238E-1,-3.5175657E-1],"split_indices":[8,0,1,9,4,7,1,5,9,9,3,9,0,2,1,0,8,8,3,5,0,2,8,5,2,9,1,2,8,9,4,0,1,1,3,9,3,0,2,0,0,1,9,2,3,1,1,3,4,0,2,2,1,0,9,0,0,0,0,0,0,0,0,0,0,0,0,0,0,0,0,0,0,0,0,0,0,0,0,0,0,0,0,0,0,0,0,0,0,0,0,0,0,0,0,0,0,0,0,0,0],"split_type":[0,0,0,0,0,0,0,0,0,0,0,0,0,0,0,0,0,0,0,0,0,0,0,0,0,0,0,0,0,0,0,0,0,0,0,0,0,0,0,0,0,0,0,0,0,0,0,0,0,0,0,0,0,0,0,0,0,0,0,0,0,0,0,0,0,0,0,0,0,0,0,0,0,0,0,0,0,0,0,0,0,0,0,0,0,0,0,0,0,0,0,0,0,0,0,0,0,0,0,0,0],"sum_hessian":[1.5135616E5,5.0830832E4,1.0052532E5,1.5856293E4,3.497454E4,8.3338945E4,1.718637E4,5.497764E3,1.0358528E4,2.0709783E4,1.4264756E4,7.863394E4,4.705012E3,4.5678887E3,1.261848E4,4.9185625E3,5.7920184E2,8.380411E3,1.9781174E3,1.5405458E3,1.9169238E4,2.466011E3,1.1798745E4,9.946567E3,6.868737E4,4.439115E3,1.2877377E2,2.385981E3,1.0232499E4,3.0039386E2,4.6181685E3,3.7479062E2,2.0441121E2,7.720375E3,6.6003577E2,4.2440527E2,1.5537122E3,1.3087526E3,2.3179329E2,7.5597266E2,1.7100382E3,1.461158E3,1.0337587E4,2.2879302E3,7.658637E3,1.1196794E4,5.7490574E4,1.5622642E3,2.8768508E3,3.854076E1,9.023301E1,2.3591846E3,2.6796368E1,1.021426E4,1.8239565E1,1.6850488E2,1.3188898E2,3.9209456E3,6.9722284E2,1.4691785E2,2.2787279E2,1.6168667E1,1.8824254E2,5.872359E2,7.133139E3,1.877567E2,4.7227905E2,1.6948807E2,2.5491719E2,1.0140375E2,1.4523085E3,1.2282438E1,2.1951085E2,8.079536E1,6.751773E2,6.3892075E1,1.397266E3,1.5893397E3,8.748247E3,2.604712E2,2.027459E3,7.638966E3,1.9670982E1,6.8751484E3,4.3216455E3,2.2325698E3,5.5258004E4,1.5611346E3,1.1295283E0,9.285136E1,2.7839995E3,2.6976322E1,6.3256687E1,2.303035E3,5.6149788E1,2.3586409E1,3.2099588E0,1.5106792E2,1.0063191E4,1.1777219E1,6.462345E0],"tree_param":{"num_deleted":"0","num_feature":"10","num_nodes":"101","size_leaf_vector":"0"}},{"base_weights":[-1.16269514E-1,-7.4369806E-1,1.651721E-1,-4.422734E-1,-8.966935E-1,5.864875E-2,8.955057E-1,-8.7199885E-1,-2.568468E-1,-9.837444E-1,-7.8371793E-1,1.0732124E-1,-3.0192375E-1,6.7212623E-1,9.808487E-1,-9.841679E-1,-7.7092694E-3,-1.4853506E-1,-8.3262664E-1,-6.828442E-1,-3.0242488E-1,-5.685861E-1,-1.0455083E0,7.0670074E-1,3.2541838E-2,7.208009E-1,-1.6568426E0,7.298345E-1,9.907027E-1,-4.370917E-1,-1.0250592E0,3.1611305E-1,-1.092706E0,-1.9678237E-1,1.1645919E0,-1.4019999E-1,-1.0524509E0,-3.021739E-1,1.049102E0,-6.660757E-1,2.4557536E0,-1.1550541E0,-3.0303273E-1,-4.9902525E-2,9.954882E-1,3.7364933E-1,-1.164899E-1,-8.172655E-1,7.5664914E-1,-3.450044E-1,-2.037649E0,9.057832E-1,-4.139079E-1,9.186817E-1,3.011384E-1,-3.0500948E-1,6.1614495E-2,-3.0224514E-1,-3.3633557E-1,-3.5134378E-1,1.7655048E-1,-3.1087786E-1,-4.3899933E-1,5.5054814E-2,-1.0243649E-1,6.291235E-1,-3.1884038E-1,-4.0572777E-1,1.4565162E-1,-3.7321752E-1,-3.1134707E-1,-2.8950974E-1,3.4944367E-1,-1.0201369E-1,-3.030413E-1,-3.0798405E-1,9.4928014E-1,-4.0414223E-1,-3.0313212E-1,-1.17408E-1,1.32558E-1,3.0063665E-1,-4.4270632E-1,2.366933E-2,2.4375977E-1,-9.956877E-1,2.7515002E-2,7.945729E-2,-1.1919246E0,3.018858E-1,1.7904773E-1,-8.8408333E-1,-4.9154338E-1,1.5784688E-1,2.819858E-1,-1.8064626E0,2.5939527E-1,2.8257394E-1,-1.692521E0],"categories":[],"categories_nodes":[],"categories_segments":[],"categories_sizes":[],"default_left":[0,0,0,0,0,0,0,0,0,0,0,0,0,0,0,0,0,0,0,0,0,0,0,0,0,0,0,0,0,0,0,0,0,0,0,0,0,0,0,0,0,0,0,0,0,0,0,0,0,0,0,0,0,0,0,0,0,0,0,0,0,0,0,0,0,0,0,0,0,0,0,0,0,0,0,0,0,0,0,0,0,0,0,0,0,0,0,0,0,0,0,0,0,0,0,0,0,0,0],"id":14,"left_children":[1,3,5,7,9,11,13,15,17,19,21,23,-1,25,27,29,31,33,35,37,-1,39,41,43,45,47,49,51,53,55,57,59,61,63,65,67,69,-1,71,73,75,77,-1,79,81,83,85,87,89,-1,91,93,95,97,-1,-1,-1,-1,-1,-1,-1,-1,-1,-1,-1,-1,-1,-1,-1,-1,-1,-1,-1,-1,-1,-1,-1,-1,-1,-1,-1,-1,-1,-1,-1,-1,-1,-1,-1,-1,-1,-1,-1,-1,-1,-1,-1,-1,-1],"loss_changes":[2.3430562E4,1.8944434E3,7.1261846E3,1.1022346E3,2.6725977E2,4.1441885E3,2.2161816E2,4.0426807E2,6.0271814E2,1.12009766E2,6.676665E2,3.4264893E3,0E0,3.6693958E2,2.0139648E1,8.2123535E1,1.6900554E2,5.1576465E2,2.327799E2,6.498185E2,0E0,1.9226414E3,1.9583496E1,1.8528647E3,3.455335E3,1.7490674E2,1.0462921E1,6.525331E1,6.7280273E0,9.644888E1,4.6672363E0,1.507738E2,7.9663086E-1,4.3194537E2,6.0151086E2,2.812275E2,1.9639893E0,0E0,4.369185E1,7.0778174E2,5.0578394E2,3.4748657E1,0E0,3.9368112E2,1.0209131E2,2.6734592E3,3.1541113E4,2.485612E2,1.22664795E2,0E0,8.452652E0,3.1338959E0,3.183043E2,1.9730371E2,0E0,0E0,0E0,0E0,0E0,0E0,0E0,0E0,0E0,0E0,0E0,0E0,0E0,0E0,0E0,0E0,0E0,0E0,0E0,0E0,0E0,0E0,0E0,0E0,0E0,0E0,0E0,0E0,0E0,0E0,0E0,0E0,0E0,0E0,0E0,0E0,0E0,0E0,0E0,0E0,0E0,0E0,0E0,0E0,0E0],"parents":[2147483647,0,0,1,1,2,2,3,3,4,4,5,5,6,6,7,7,8,8,9,9,10,10,11,11,13,13,14,14,15,15,16,16,17,17,18,18,19,19,21,21,22,22,23,23,24,24,25,25,26,26,27,27,28,28,29,29,30,30,31,31,32,32,33,33,34,34,35,35,36,36,38,38,39,39,40,40,41,41,43,43,44,44,45,45,46,46,47,47,48,48,50,50,51,51,52,52,53,53],"right_children":[2,4,6,8,10,12,14,16,18,20,22,24,-1,26,28,30,32,34,36,38,-1,40,42,44,46,48,50,52,54,56,58,60,62,64,66,68,70,-1,72,74,76,78,-1,80,82,84,86,88,90,-1,92,94,96,98,-1,-1,-1,-1,-1,-1,-1,-1,-1,-1,-1,-1,-1,-1,-1,-1,-1,-1,-1,-1,-1,-1,-1,-1,-1,-1,-1,-1,-1,-1,-1,-1,-1,-1,-1,-1,-1,-1,-1,-1,-1,-1,-1,-1,-1],"split_conditions":[0E0,9.4E1,1.2886927E1,-1E-2,1E0,1E0,1.3381053E1,1E0,1.0000001E-2,-5.342959E5,1.332916E1,-1.0000001E-2,-3.0192375E-1,1.34007015E1,1.8E1,9E0,1.3195201E1,4.7E1,7.5766506E0,1E0,-3.0242488E-1,1.3314456E1,-3.2737844E5,1E0,1.0587165E1,2E1,1.3247485E1,1.3015626E1,1.3699841E1,1.2099034E1,1E0,-1.0817674E6,-4.430542E4,1.6E1,-9.313226E-10,3.663777E5,1.06291E1,-3.021739E-1,1.3191471E1,3.9318256E0,2.0372681E-10,1.271598E1,-3.0303273E-1,1.17768345E1,7.5766506E0,9.9555025E0,1.059165E1,1.1E1,-3.8854844E5,-3.450044E-1,1.3479014E1,1.3699841E1,1E0,1.3740646E1,3.011384E-1,-3.0500948E-1,6.1614495E-2,-3.0224514E-1,-3.3633557E-1,-3.5134378E-1,1.7655048E-1,-3.1087786E-1,-4.3899933E-1,5.5054814E-2,-1.0243649E-1,6.291235E-1,-3.1884038E-1,-4.0572777E-1,1.4565162E-1,-3.7321752E-1,-3.1134707E-1,-2.8950974E-1,3.4944367E-1,-1.0201369E-1,-3.030413E-1,-3.0798405E-1,9.4928014E-1,-4.0414223E-1,-3.0313212E-1,-1.17408E-1,1.32558E-1,3.0063665E-1,-4.4270632E-1,2.366933E-2,2.4375977E-1,-9.956877E-1,2.7515002E-2,7.945729E-2,-1.1919246E0,3.018858E-1,1.7904773E-1,-8.8408333E-1,-4.9154338E-1,1.5784688E-1,2.819858E-1,-1.8064626E0,2.5939527E-1,2.8257394E-1,-1.692521E0],"split_indices":[8,0,1,9,4,7,1,5,9,9,3,9,0,2,0,0,3,0,3,5,0,3,8,5,2,0,1,3,1,1,4,8,8,0,9,9,3,0,2,2,9,1,0,1,3,1,1,0,9,0,2,1,4,2,0,0,0,0,0,0,0,0,0,0,0,0,0,0,0,0,0,0,0,0,0,0,0,0,0,0,0,0,0,0,0,0,0,0,0,0,0,0,0,0,0,0,0,0,0],"split_type":[0,0,0,0,0,0,0,0,0,0,0,0,0,0,0,0,0,0,0,0,0,0,0,0,0,0,0,0,0,0,0,0,0,0,0,0,0,0,0,0,0,0,0,0,0,0,0,0,0,0,0,0,0,0,0,0,0,0,0,0,0,0,0,0,0,0,0,0,0,0,0,0,0,0,0,0,0,0,0,0,0,0,0,0,0,0,0,0,0,0,0,0,0,0,0,0,0,0,0],"sum_hessian":[1.3268583E5,4.1087113E4,9.159872E4,1.3834639E4,2.7252477E4,7.994008E4,1.1658639E4,4.1690894E3,9.665549E3,1.5387933E4,1.1864543E4,7.644739E4,3.4926885E3,3.225357E3,8.433281E3,3.6900496E3,4.790398E2,8.1362686E3,1.5292809E3,1.1536946E3,1.4234238E4,6.514384E3,5.3501597E3,8.478799E3,6.796859E4,3.1600044E3,6.535247E1,3.2139313E2,8.111888E3,2.5744467E2,3.4326047E3,3.6947647E2,1.09563324E2,7.848738E3,2.875306E2,3.6890417E2,1.1603767E3,9.720442E2,1.8165033E2,6.3117056E3,2.0267801E2,1.2989194E3,4.0512405E3,2.3424827E3,6.1363164E3,2.0666072E4,4.730252E4,7.147736E1,3.088527E3,2.9761652E1,3.559082E1,2.7872348E2,4.266964E1,1.2587114E3,6.853177E3,1.3503792E2,1.2240676E2,2.9114087E3,5.2119617E2,5.668317E1,3.127933E2,9.8376495E1,1.1186832E1,2.1628972E3,5.685841E3,2.0272102E2,8.4809586E1,1.2519434E2,2.4370982E2,7.633981E1,1.0840369E3,9.469934E0,1.7218039E2,3.2417966E3,3.069909E3,3.418899E1,1.6848901E2,5.54318E2,7.446014E2,1.3826427E3,9.598399E2,6.1204805E3,1.5836134E1,1.2363796E4,8.302277E3,2.8866963E3,4.4415824E4,5.3908367E1,1.7568996E1,1.2034681E3,1.8850588E3,8.910472E0,2.668035E1,2.4369781E1,2.543537E2,7.2337003E0,3.543594E1,1.2551233E3,3.5881495E0],"tree_param":{"num_deleted":"0","num_feature":"10","num_nodes":"99","size_leaf_vector":"0"}},{"base_weights":[-9.616086E-2,-6.815387E-1,1.3455857E-1,-3.6911416E-1,-8.639866E-1,5.1091634E-2,8.954894E-1,-8.4454006E-1,-2.010044E-1,-9.812638E-1,-7.2326845E-1,8.8424236E-2,-3.0137005E-1,6.571549E-1,9.7228074E-1,-9.700371E-1,-2.0800482E-2,-8.6523674E-2,-7.4046826E-1,-6.777764E-1,-3.0179313E-1,-1.06194384E-1,-8.579733E-1,3.852994E-1,-3.7977174E-2,7.1069944E-1,-1.4376272E0,6.21216E-1,9.814891E-1,-3.7951314E-1,-1.0213568E0,-4.3755442E-1,7.6616067E-1,3.0937735E-2,-3.1295568E-1,-3.048414E-1,6.8179125E-1,-3.0143657E-1,9.9202913E-1,9.973978E-1,-3.013351E-1,-4.2236173E-1,-9.428866E-1,-5.557099E-3,9.840378E-1,7.504648E-1,-1.0104784E-1,8.324657E-1,1.2316177E-1,-3.34206E-1,-4.6882924E-1,8.304567E-1,-8.718732E-1,8.83514E-1,3.0002096E-1,-3.1625557E-1,8.262788E-2,-3.0161124E-1,-3.321173E-1,-3.2300588E-1,1.1393328E-1,-4.568176E-1,2.7952096E-1,-5.1185418E-2,2.1876942E-1,-3.4064043E-1,3.3076596E-1,3.3172104E-1,-3.0305824E-1,-5.1840055E-1,3.8150805E-1,2.529363E-1,-3.1009635E-1,-3.0865335E-1,-1.8606988E-1,2.7769756E-1,-5.6976143E-2,2.962727E-1,-3.1567556E-1,2.8812394E-1,-1.2659125E-1,-4.3833685E-1,-1.864087E-2,3.007836E-1,2.0455217E-1,-1.2303696E0,1.1823608E-1,-6.8452704E-1,2.645447E-1,-1.5025691E0,2.8059325E-1,2.7405438E-1,-1.3509682E0],"categories":[],"categories_nodes":[],"categories_segments":[],"categories_sizes":[],"default_left":[0,0,0,0,0,0,0,0,0,0,0,0,0,0,0,0,0,0,0,0,0,0,0,0,0,0,0,0,0,0,0,0,0,0,0,0,0,0,0,0,0,0,0,0,0,0,0,0,0,0,0,0,0,0,0,0,0,0,0,0,0,0,0,0,0,0,0,0,0,0,0,0,0,0,0,0,0,0,0,0,0,0,0,0,0,0,0,0,0,0,0,0,0],"id":15,"left_children":[1,3,5,7,9,11,13,15,17,19,21,23,-1,25,27,29,31,33,35,37,-1,39,41,43,45,47,49,51,53,55,57,59,61,63,-1,-1,65,-1,67,69,-1,71,73,75,77,79,81,83,85,-1,-1,87,89,91,-1,-1,-1,-1,-1,-1,-1,-1,-1,-1,-1,-1,-1,-1,-1,-1,-1,-1,-1,-1,-1,-1,-1,-1,-1,-1,-1,-1,-1,-1,-1,-1,-1,-1,-1,-1,-1,-1,-1],"loss_changes":[1.5857932E4,1.8918145E3,5.3490693E3,9.780835E2,3.45125E2,2.991238E3,1.5172656E2,3.3048413E2,5.5846204E2,8.502344E1,7.920459E2,2.7508496E3,0E0,2.2891357E2,1.9738281E1,8.369116E1,1.3929666E2,8.3850653E2,6.213785E2,4.7251706E2,0E0,1.6948384E3,2.8893213E2,5.1229854E3,2.556855E3,1.4167993E2,3.2310486E-1,5.1835957E1,1.0278809E1,9.901343E1,2.3833008E0,1.4544514E2,5.7151863E1,9.3561035E2,0E0,0E0,1.982384E2,0E0,3.3427246E1,5.757393E2,0E0,9.893667E2,1.8089014E2,2.2742534E3,6.332617E1,9.3785376E2,2.5194695E3,4.1382935E1,3.923828E2,0E0,0E0,2.502993E1,1.5866226E2,1.6346674E2,0E0,0E0,0E0,0E0,0E0,0E0,0E0,0E0,0E0,0E0,0E0,0E0,0E0,0E0,0E0,0E0,0E0,0E0,0E0,0E0,0E0,0E0,0E0,0E0,0E0,0E0,0E0,0E0,0E0,0E0,0E0,0E0,0E0,0E0,0E0,0E0,0E0,0E0,0E0],"parents":[2147483647,0,0,1,1,2,2,3,3,4,4,5,5,6,6,7,7,8,8,9,9,10,10,11,11,13,13,14,14,15,15,16,16,17,17,18,18,19,19,21,21,22,22,23,23,24,24,25,25,26,26,27,27,28,28,29,29,30,30,31,31,32,32,33,33,36,36,38,38,39,39,41,41,42,42,43,43,44,44,45,45,46,46,47,47,48,48,51,51,52,52,53,53],"right_children":[2,4,6,8,10,12,14,16,18,20,22,24,-1,26,28,30,32,34,36,38,-1,40,42,44,46,48,50,52,54,56,58,60,62,64,-1,-1,66,-1,68,70,-1,72,74,76,78,80,82,84,86,-1,-1,88,90,92,-1,-1,-1,-1,-1,-1,-1,-1,-1,-1,-1,-1,-1,-1,-1,-1,-1,-1,-1,-1,-1,-1,-1,-1,-1,-1,-1,-1,-1,-1,-1,-1,-1,-1,-1,-1,-1,-1,-1],"split_conditions":[0E0,9.4E1,1.2985291E1,-1E-2,1E0,1E0,1.3381053E1,1E0,8.443332E0,-5.342959E5,7.5766506E0,1.29E2,-3.0137005E-1,1.34007015E1,1.4E1,9E0,-4.430542E4,1.4584036E1,1.5882232E1,1E0,-3.0179313E-1,3.9318256E0,-9.313226E-10,4.7E1,-1.0000001E-2,1.3120789E1,1.3247485E1,1.3000375E1,1.3699841E1,-8.69434E3,1E0,-1.0861888E5,1.3E1,1.38903E1,-3.1295568E-1,-3.048414E-1,1.1225759E1,-3.0143657E-1,7.5766506E0,-2.9278738E5,-3.013351E-1,1.1467087E1,1E-2,9E0,4.5474735E-13,7.5766506E0,1E0,-4.031342E5,1E0,-3.34206E-1,-4.6882924E-1,1.3699841E1,1.4831805E1,1.3740646E1,3.0002096E-1,-3.1625557E-1,8.262788E-2,-3.0161124E-1,-3.321173E-1,-3.2300588E-1,1.1393328E-1,-4.568176E-1,2.7952096E-1,-5.1185418E-2,2.1876942E-1,-3.4064043E-1,3.3076596E-1,3.3172104E-1,-3.0305824E-1,-5.1840055E-1,3.8150805E-1,2.529363E-1,-3.1009635E-1,-3.0865335E-1,-1.8606988E-1,2.7769756E-1,-5.6976143E-2,2.962727E-1,-3.1567556E-1,2.8812394E-1,-1.2659125E-1,-4.3833685E-1,-1.864087E-2,3.007836E-1,2.0455217E-1,-1.2303696E0,1.1823608E-1,-6.8452704E-1,2.645447E-1,-1.5025691E0,2.8059325E-1,2.7405438E-1,-1.3509682E0],"split_indices":[8,0,1,9,4,7,1,5,2,9,3,0,0,2,0,0,8,3,3,5,0,2,9,0,9,3,1,3,1,9,4,9,0,3,0,0,2,0,3,8,0,1,9,0,8,3,4,9,4,0,0,1,1,2,0,0,0,0,0,0,0,0,0,0,0,0,0,0,0,0,0,0,0,0,0,0,0,0,0,0,0,0,0,0,0,0,0,0,0,0,0,0,0],"split_type":[0,0,0,0,0,0,0,0,0,0,0,0,0,0,0,0,0,0,0,0,0,0,0,0,0,0,0,0,0,0,0,0,0,0,0,0,0,0,0,0,0,0,0,0,0,0,0,0,0,0,0,0,0,0,0,0,0,0,0,0,0,0,0,0,0,0,0,0,0,0,0,0,0,0,0,0,0,0,0,0,0,0,0,0,0,0,0,0,0,0,0,0,0],"sum_hessian":[1.17414E5,3.319364E4,8.422036E4,1.2238833E4,2.0954809E4,7.589632E4,8.324044E3,3.196079E3,9.042754E3,1.1426104E4,9.528706E3,7.330486E4,2.591457E3,2.0307704E3,6.2932734E3,2.7733762E3,4.2270267E2,7.4606704E3,1.5820836E3,8.625165E2,1.0563587E4,1.7076882E3,7.8210176E3,2.1890127E4,5.141473E4,1.9808E3,4.9970337E1,1.6260254E2,6.130671E3,2.2242143E2,2.5509548E3,2.7664352E2,1.4605914E2,6.645666E3,8.1500433E2,1.3254614E3,2.566222E2,7.215981E2,1.409184E2,7.6621295E2,9.414753E2,1.2768185E3,6.5441987E3,1.3244867E4,8.64526E3,3.8074294E3,4.7607305E4,1.6404106E3,3.4038947E2,1.669613E1,3.3274204E1,1.430056E2,1.959693E1,9.850622E2,5.1456084E3,1.0925997E2,1.1316146E2,2.1606497E3,3.9030524E2,1.5506754E2,1.21576E2,9.300091E0,1.3675906E2,5.1577007E3,1.4879653E3,4.792721E1,2.0869498E2,1.337693E2,7.149101E0,6.957879E1,6.9663416E2,4.157546E2,8.6106396E2,5.165796E3,1.3784031E3,2.1882153E3,1.1056651E4,8.63078E3,1.4479872E1,3.2293328E3,5.7809656E2,1.3231398E3,4.6284164E4,7.6763434E2,8.727763E2,1.966501E1,3.2072446E2,1.6165954E0,1.41389E2,5.419677E0,1.4177252E1,9.8043225E2,4.629945E0],"tree_param":{"num_deleted":"0","num_feature":"10","num_nodes":"93","size_leaf_vector":"0"}},{"base_weights":[-7.773091E-2,-6.2106675E-1,1.0865644E-1,-3.0815673E-1,-8.340395E-1,4.5046814E-2,9.0647256E-1,-8.190172E-1,-1.6161126E-1,-9.792964E-1,-6.728842E-1,6.6641116E-1,-5.704994E-3,7.1474576E-1,9.7897047E-1,-9.541048E-1,-2.8042376E-2,1.978204E-1,-3.0876297E-1,-6.730753E-1,-3.0131721E-1,-4.2825133E-1,-1.0267931E0,5.537001E-4,7.876029E-1,-1.7933853E0,6.0482934E-2,7.6353896E-1,-7.478094E-1,6.025485E-1,9.9054277E-1,-3.2921693E-1,-1.0178144E0,2.2905193E-1,-3.20653E-1,6.304136E-1,-7.661783E-1,-3.167402E-1,-1.7566289E-1,-3.0082062E-1,9.418156E-1,-6.7107576E-1,7.8328854E-1,-1.0885276E0,-3.017276E-1,-1.3341713E0,9.476204E-1,7.9442894E-1,-1.8036062E0,-1.0772313E0,-2.5597692E0,7.257104E-1,4.143897E-3,2.9998803E-1,6.073197E-1,2.7819705E-1,-1.2644869E0,8.017429E-1,-6.3091016E-1,9.9116117E-1,-1.816192E-1,-2.992661E-1,8.966862E-2,-3.0111602E-1,-3.273945E-1,-3.290861E-1,1.2897082E-1,-3.61108E-1,2.5127545E-1,2.7891546E-1,-3.0768853E-1,5.6150293E-1,-1.0340274E-1,-2.7156338E-1,3.1762695E-1,-3.4807686E-2,-3.0479977E-1,2.3968847E0,-4.0764786E-2,-3.5463426E-1,-3.012752E-1,-8.1627214E-1,-3.8445455E-1,2.9944092E-1,-3.6368388E-1,2.4014467E-1,-1.8730587E0,-6.921605E-1,-3.141004E-1,-1.0353155E0,-5.198788E-1,1.0792551E-1,2.6723924E-1,-6.4066845E-1,2.6931694E-2,-1.1503694E0,2.3360448E-1,-7.3274285E-1,-4.6883266E-2,2.5447336E-1,3.7364915E-2,-8.7539023E-1,2.723521E-1,2.7049658E-1,2.9924807E-1],"categories":[],"categories_nodes":[],"categories_segments":[],"categories_sizes":[],"default_left":[0,0,0,0,0,0,0,0,0,0,0,0,0,0,0,0,0,0,0,0,0,0,0,0,0,0,0,0,0,0,0,0,0,0,0,0,0,0,0,0,0,0,0,0,0,0,0,0,0,0,0,0,0,0,0,0,0,0,0,0,0,0,0,0,0,0,0,0,0,0,0,0,0,0,0,0,0,0,0,0,0,0,0,0,0,0,0,0,0,0,0,0,0,0,0,0,0,0,0,0,0,0,0,0,0],"id":16,"left_children":[1,3,5,7,9,11,13,15,17,19,21,23,25,27,29,31,33,35,37,39,-1,41,43,45,47,49,51,53,55,57,59,61,63,65,-1,67,69,-1,71,-1,73,75,77,79,-1,81,83,85,-1,87,89,91,93,-1,95,-1,97,99,101,103,-1,-1,-1,-1,-1,-1,-1,-1,-1,-1,-1,-1,-1,-1,-1,-1,-1,-1,-1,-1,-1,-1,-1,-1,-1,-1,-1,-1,-1,-1,-1,-1,-1,-1,-1,-1,-1,-1,-1,-1,-1,-1,-1,-1,-1],"loss_changes":[1.0748836E4,1.8064102E3,4.010606E3,8.219343E2,3.7693945E2,2.3082273E3,8.041455E1,2.6149377E2,4.51445E2,6.449951E1,6.618799E2,4.4600684E2,8.0068716E3,1.1510034E2,1.7837158E1,8.2889404E1,9.605562E1,1.0345334E3,6.019286E2,3.445529E2,0E0,1.3317559E3,2.9641113E0,1.0783286E3,2.218064E2,1.3232534E3,2.4455967E3,5.6771606E1,4.64543E1,3.2144356E1,4.6503906E0,8.211115E1,8.692627E-1,7.716268E1,0E0,6.515658E2,3.390995E2,0E0,1.7795831E3,0E0,2.4703964E1,7.2166174E2,5.008549E3,4.982666E0,0E0,2.2367065E1,5.5654877E1,2.0404321E2,0E0,4.4085815E1,8.535493E2,3.0749E2,1.1022656E4,0E0,7.169645E2,0E0,5.2369743E1,3.3994446E0,6.762649E1,1.4257812E0,0E0,0E0,0E0,0E0,0E0,0E0,0E0,0E0,0E0,0E0,0E0,0E0,0E0,0E0,0E0,0E0,0E0,0E0,0E0,0E0,0E0,0E0,0E0,0E0,0E0,0E0,0E0,0E0,0E0,0E0,0E0,0E0,0E0,0E0,0E0,0E0,0E0,0E0,0E0,0E0,0E0,0E0,0E0,0E0,0E0],"parents":[2147483647,0,0,1,1,2,2,3,3,4,4,5,5,6,6,7,7,8,8,9,9,10,10,11,11,12,12,13,13,14,14,15,15,16,16,17,17,18,18,19,19,21,21,22,22,23,23,24,24,25,25,26,26,27,27,28,28,29,29,30,30,31,31,32,32,33,33,35,35,36,36,38,38,40,40,41,41,42,42,43,43,45,45,46,46,47,47,49,49,50,50,51,51,52,52,54,54,56,56,57,57,58,58,59,59],"right_children":[2,4,6,8,10,12,14,16,18,20,22,24,26,28,30,32,34,36,38,40,-1,42,44,46,48,50,52,54,56,58,60,62,64,66,-1,68,70,-1,72,-1,74,76,78,80,-1,82,84,86,-1,88,90,92,94,-1,96,-1,98,100,102,104,-1,-1,-1,-1,-1,-1,-1,-1,-1,-1,-1,-1,-1,-1,-1,-1,-1,-1,-1,-1,-1,-1,-1,-1,-1,-1,-1,-1,-1,-1,-1,-1,-1,-1,-1,-1,-1,-1,-1,-1,-1,-1,-1,-1,-1],"split_conditions":[0E0,9.4E1,1.3076343E1,-1E-2,1E0,9.207837E0,1.3575114E1,1E0,1.0726334E1,-5.342959E5,1.332916E1,1E0,9.2102585E0,1.3563714E1,1.4E1,9E0,1.3195201E1,3.9318256E0,1.2454709E1,1E0,-3.0131721E-1,1.3060963E1,-3.2737844E5,1E0,2.1038694E5,1E0,9.9233885E0,-4.031342E5,-7.5986006E5,1.3000375E1,4.5474735E-13,1E0,1E0,-1.0817674E6,-3.20653E-1,1.1447598E1,8E0,-3.167402E-1,1.2473107E1,-3.0082062E-1,1.3191471E1,7.5766506E0,1.3076076E1,1.271598E1,-3.017276E-1,-1.000528E4,7.5766506E0,3.52E2,-1.8036062E0,-1.028314E4,9.886596E0,9.519091E0,9.9555025E0,2.9998803E-1,1E0,2.7819705E-1,1E0,4.5474735E-13,1.4831805E1,1.3699841E1,-1.816192E-1,-2.992661E-1,8.966862E-2,-3.0111602E-1,-3.273945E-1,-3.290861E-1,1.2897082E-1,-3.61108E-1,2.5127545E-1,2.7891546E-1,-3.0768853E-1,5.6150293E-1,-1.0340274E-1,-2.7156338E-1,3.1762695E-1,-3.4807686E-2,-3.0479977E-1,2.3968847E0,-4.0764786E-2,-3.5463426E-1,-3.012752E-1,-8.1627214E-1,-3.8445455E-1,2.9944092E-1,-3.6368388E-1,2.4014467E-1,-1.8730587E0,-6.921605E-1,-3.141004E-1,-1.0353155E0,-5.198788E-1,1.0792551E-1,2.6723924E-1,-6.4066845E-1,2.6931694E-2,-1.1503694E0,2.3360448E-1,-7.3274285E-1,-4.6883266E-2,2.5447336E-1,3.7364915E-2,-8.7539023E-1,2.723521E-1,2.7049658E-1,2.9924807E-1],"split_indices":[8,0,1,9,4,2,1,5,3,9,3,4,1,2,0,0,3,2,3,5,0,3,8,5,9,4,2,9,9,3,8,4,4,8,0,1,0,0,3,0,2,3,3,1,0,9,3,0,0,9,2,1,1,0,4,0,4,8,1,1,0,0,0,0,0,0,0,0,0,0,0,0,0,0,0,0,0,0,0,0,0,0,0,0,0,0,0,0,0,0,0,0,0,0,0,0,0,0,0,0,0,0,0,0,0],"split_type":[0,0,0,0,0,0,0,0,0,0,0,0,0,0,0,0,0,0,0,0,0,0,0,0,0,0,0,0,0,0,0,0,0,0,0,0,0,0,0,0,0,0,0,0,0,0,0,0,0,0,0,0,0,0,0,0,0,0,0,0,0,0,0,0,0,0,0,0,0,0,0,0,0,0,0,0,0,0,0,0,0,0,0,0,0,0,0,0,0,0,0,0,0,0,0,0,0,0,0,0,0,0,0,0,0],"sum_hessian":[1.06137734E5,2.7109316E4,7.9028414E4,1.0979761E4,1.6129555E4,7.319376E4,5.834659E3,2.4465278E3,8.533233E3,8.480555E3,7.6489995E3,5.525979E3,6.766778E4,1.6038911E3,4.230768E3,2.089469E3,3.570588E2,2.4786228E3,6.0546104E3,6.4443774E2,7.836117E3,4.524047E3,3.1249526E3,8.510583E2,4.674921E3,2.4149844E3,6.5252793E4,1.5525728E3,5.1318344E1,1.2776992E2,4.102998E3,1.9389003E2,1.895579E3,2.8695602E2,7.010276E1,1.7111104E3,7.675125E2,9.1456866E2,5.1400415E3,5.355009E2,1.0893684E2,3.769072E3,7.54975E2,7.8126166E2,2.343691E3,3.5306546E2,4.9799283E2,4.6711147E3,3.8060908E0,1.2496466E3,1.1653378E3,5.0939316E3,6.0158863E4,6.155708E2,9.3700195E2,1.1909966E1,3.940838E1,1.10306274E2,1.7463644E1,4.1017876E3,1.2104278E0,9.3652176E1,1.0023785E2,1.6028716E3,2.9270746E2,3.7160824E1,2.4979521E2,1.7317401E2,1.5379364E3,1.0149655E2,6.660159E2,3.9119714E2,4.748844E3,6.0850744E0,1.0285176E2,1.4450448E3,2.324027E3,8.4534E1,6.7044104E2,3.640126E2,4.1724908E2,1.1062191E1,3.4200327E2,4.8713745E2,1.0855353E1,4.6679863E3,3.1286366E0,2.8169926E1,1.2214767E3,5.5928687E2,6.060509E2,1.584547E3,3.5093845E3,2.313926E3,5.7844938E4,3.401145E1,9.029905E2,1.8519157E1,2.0889221E1,1.029821E2,7.3241787E0,6.663423E0,1.0800221E1,2.8049268E2,3.821295E3],"tree_param":{"num_deleted":"0","num_feature":"10","num_nodes":"105","size_leaf_vector":"0"}},{"base_weights":[-6.696933E-2,-5.759249E-1,8.569161E-2,-2.6605266E-1,-8.035848E-1,3.607952E-2,9.000379E-1,-1.6919887E-1,-9.795184E-1,-6.364621E-1,-9.784976E-1,2.7262136E-1,-7.679332E-2,6.9741446E-1,9.712688E-1,-2.129777E-1,1.3814664E0,-1.0236777E0,2.9765707E-1,-4.025352E-1,-1.0265958E0,-3.0116957E-1,-6.3028586E-1,3.1553518E-2,8.194446E-1,-2.039247E0,1.1142763E-1,7.5275826E-1,-6.5494865E-1,5.558793E-1,9.8512E-1,-9.187533E-2,-6.8992984E-1,-3.0647233E-1,1.636663E0,-1.3836308E0,-3.0558407E-1,-1.0368705E0,-2.8448336E-2,-3.0175054E-1,-1.0681413E0,-3.0009678E-1,1.7794232E-1,2.8587067E-1,-2.7410488E0,8.3038217E-1,-1.1607004E0,-2.9125946E0,-8.6834025E-1,5.7921237E-1,-6.267474E-2,2.98981E-1,5.9577584E-1,-1.4311394E-1,-2.41646E0,7.4499047E-1,-4.6485838E-1,9.8582727E-1,-1.666298E-1,-8.807102E-6,-3.0917877E-1,-2.7331176E-1,1.7494279E-1,5.4638135E-1,-2.9199785E-1,-3.0505705E-1,-6.376772E-1,-3.0185032E-1,-3.245306E-1,9.6365355E-2,-3.0799767E-1,-4.363673E-1,-3.1027347E-1,2.254543E-1,-3.012058E-1,3.0518048E-2,2.4399726E-1,-5.222212E-1,-1.3756664E0,2.5195837E-1,-1.1720358E0,-7.356965E-1,-1.3192183E0,-3.4611562E-1,3.432499E-1,9.498889E-3,2.1179228E-1,-5.3794116E-1,4.761934E-2,-1.1980851E0,2.2711761E-1,6.674742E-2,-5.363198E-1,-3.5229856E-1,-1.4424919E0,2.8356397E-1,1.3670154E-1,-5.573325E-1,2.621509E-1,2.607061E-1,2.9830334E-1],"categories":[],"categories_nodes":[],"categories_segments":[],"categories_sizes":[],"default_left":[0,0,0,0,0,0,0,0,0,0,0,0,0,0,0,0,0,0,0,0,0,0,0,0,0,0,0,0,0,0,0,0,0,0,0,0,0,0,0,0,0,0,0,0,0,0,0,0,0,0,0,0,0,0,0,0,0,0,0,0,0,0,0,0,0,0,0,0,0,0,0,0,0,0,0,0,0,0,0,0,0,0,0,0,0,0,0,0,0,0,0,0,0,0,0,0,0,0,0,0,0],"id":17,"left_children":[1,3,5,7,9,11,13,15,17,19,21,23,25,27,29,31,33,35,-1,37,39,-1,41,43,45,47,49,51,53,55,57,59,61,-1,63,65,-1,67,69,-1,71,-1,73,75,77,79,-1,81,83,85,87,-1,89,91,93,95,97,99,-1,-1,-1,-1,-1,-1,-1,-1,-1,-1,-1,-1,-1,-1,-1,-1,-1,-1,-1,-1,-1,-1,-1,-1,-1,-1,-1,-1,-1,-1,-1,-1,-1,-1,-1,-1,-1,-1,-1,-1,-1,-1,-1],"loss_changes":[7.513948E3,1.5739541E3,3.005579E3,6.5299866E2,3.753877E2,1.8722389E3,6.0979736E1,5.653547E2,9.9366455E1,6.001743E2,5.4941406E1,2.9860288E3,1.7535008E4,8.392285E1,1.762378E1,4.6755887E2,1.419072E2,6.0546875E-1,0E0,9.766097E2,1.0527344E0,0E0,1.2873843E2,1.1087023E4,3.586245E2,4.2460234E3,3.5279487E3,4.0416748E1,3.964852E1,2.0462093E1,3.876709E0,5.5676996E2,4.619541E2,0E0,1.01562195E2,1.2522621E0,0E0,1.0162354E0,9.043279E2,0E0,9.047302E0,0E0,9.28513E1,1.3987839E3,2.429503E3,3.1380957E2,0E0,1.6152324E3,1.0215327E3,8.154866E2,1.2095628E4,0E0,4.8728766E2,2.1704062E1,2.383855E1,4.6846123E0,3.3145363E1,2.1743164E0,0E0,0E0,0E0,0E0,0E0,0E0,0E0,0E0,0E0,0E0,0E0,0E0,0E0,0E0,0E0,0E0,0E0,0E0,0E0,0E0,0E0,0E0,0E0,0E0,0E0,0E0,0E0,0E0,0E0,0E0,0E0,0E0,0E0,0E0,0E0,0E0,0E0,0E0,0E0,0E0,0E0,0E0,0E0],"parents":[2147483647,0,0,1,1,2,2,3,3,4,4,5,5,6,6,7,7,8,8,9,9,10,10,11,11,12,12,13,13,14,14,15,15,16,16,17,17,19,19,20,20,22,22,23,23,24,24,25,25,26,26,27,27,28,28,29,29,30,30,31,31,32,32,34,34,35,35,37,37,38,38,40,40,42,42,43,43,44,44,45,45,47,47,48,48,49,49,50,50,52,52,53,53,54,54,55,55,56,56,57,57],"right_children":[2,4,6,8,10,12,14,16,18,20,22,24,26,28,30,32,34,36,-1,38,40,-1,42,44,46,48,50,52,54,56,58,60,62,-1,64,66,-1,68,70,-1,72,-1,74,76,78,80,-1,82,84,86,88,-1,90,92,94,96,98,100,-1,-1,-1,-1,-1,-1,-1,-1,-1,-1,-1,-1,-1,-1,-1,-1,-1,-1,-1,-1,-1,-1,-1,-1,-1,-1,-1,-1,-1,-1,-1,-1,-1,-1,-1,-1,-1,-1,-1,-1,-1,-1,-1],"split_conditions":[0E0,9.4E1,1.3112247E1,-2.243525E4,3.9318256E0,1.0794013E1,1.3575114E1,-2.345533E4,1.4831805E1,2.32E2,1.3151365E1,1.0317039E1,1.0806572E1,1.3563714E1,1.4E1,8.443332E0,1.2876687E1,-3.8854844E5,2.9765707E-1,1.81E2,1.2215556E1,-3.0116957E-1,1.3191471E1,1.0311482E1,3.49E2,1.1291043E1,1.1504944E1,-4.031342E5,1.3682853E1,1.3000375E1,4.5474735E-13,1.4584036E1,1.5882232E1,-3.0647233E-1,1.2892446E1,1.2046278E1,-3.0558407E-1,1.2228528E1,1.332916E1,-3.0175054E-1,7.5766506E0,-3.0009678E-1,7.5766506E0,9.904081E0,9.9555025E0,1.57812805E1,-1.1607004E0,1.059165E1,2.1038694E5,1.097996E1,1.1505073E1,2.98981E-1,1E0,2.3E2,1.3467688E1,-5.116354E5,1.4831805E1,1.3699841E1,-1.666298E-1,-8.807102E-6,-3.0917877E-1,-2.7331176E-1,1.7494279E-1,5.4638135E-1,-2.9199785E-1,-3.0505705E-1,-6.376772E-1,-3.0185032E-1,-3.245306E-1,9.6365355E-2,-3.0799767E-1,-4.363673E-1,-3.1027347E-1,2.254543E-1,-3.012058E-1,3.0518048E-2,2.4399726E-1,-5.222212E-1,-1.3756664E0,2.5195837E-1,-1.1720358E0,-7.356965E-1,-1.3192183E0,-3.4611562E-1,3.432499E-1,9.498889E-3,2.1179228E-1,-5.3794116E-1,4.761934E-2,-1.1980851E0,2.2711761E-1,6.674742E-2,-5.363198E-1,-3.5229856E-1,-1.4424919E0,2.8356397E-1,1.3670154E-1,-5.573325E-1,2.621509E-1,2.607061E-1,2.9830334E-1],"split_indices":[8,0,1,8,2,2,1,8,1,0,1,1,1,2,0,2,3,9,0,0,1,0,2,2,0,2,2,9,3,3,8,3,3,0,3,1,0,1,3,0,3,0,3,1,1,3,0,1,9,1,1,0,4,0,1,9,1,1,0,0,0,0,0,0,0,0,0,0,0,0,0,0,0,0,0,0,0,0,0,0,0,0,0,0,0,0,0,0,0,0,0,0,0,0,0,0,0,0,0,0,0],"split_type":[0,0,0,0,0,0,0,0,0,0,0,0,0,0,0,0,0,0,0,0,0,0,0,0,0,0,0,0,0,0,0,0,0,0,0,0,0,0,0,0,0,0,0,0,0,0,0,0,0,0,0,0,0,0,0,0,0,0,0,0,0,0,0,0,0,0,0,0,0,0,0,0,0,0,0,0,0,0,0,0,0,0,0,0,0,0,0,0,0,0,0,0,0,0,0,0,0,0,0,0,0],"sum_hessian":[9.670593E4,2.231322E4,7.439271E4,9.451193E3,1.2862028E4,7.012176E4,4.270955E3,8.322625E3,1.1285688E3,6.579859E3,6.282169E3,2.2651258E4,4.7470496E4,1.1137034E3,3.1572517E3,8.094948E3,2.2767635E2,1.1043169E3,2.4251987E1,4.114692E3,2.4651667E3,5.8533076E3,4.2886148E2,1.5721479E4,6.9297793E3,4.1536226E3,4.3316875E4,1.0703442E3,4.3359173E1,1.0320909E2,3.0540427E3,6.4567217E3,1.6382264E3,2.1569118E1,2.0610724E2,1.154424E1,1.0927727E3,1.5257395E3,2.5889524E3,1.6605729E3,8.045939E2,2.9401355E2,1.3484793E2,1.4401405E4,1.3200731E3,6.9144717E3,1.5307733E1,2.3782573E3,1.7753652E3,1.174843E4,3.1568443E4,4.1710117E2,6.5324304E2,3.4434837E1,8.9243355E0,8.730443E1,1.590467E1,3.053001E3,1.0416162E0,5.8821978E3,5.745239E2,1.3960437E3,2.4218279E2,1.9277423E2,1.3332996E1,9.311685E0,2.2325554E0,9.2001575E2,6.0572375E2,1.9178286E3,6.711238E2,6.1507088E1,7.430868E2,9.10353E1,4.381263E1,1.0675561E4,3.725845E3,8.5716156E2,4.6291162E2,6.901485E3,1.2987006E1,1.8175017E3,5.6075574E2,1.5552532E3,2.2011208E2,2.208789E3,9.539641E3,3.5800916E3,2.7988354E4,2.1370548E1,6.318725E2,2.8879519E1,5.5553174E0,6.855246E0,2.0690897E0,5.025705E1,3.7047375E1,7.604456E0,8.300214E0,2.1448611E2,2.838515E3],"tree_param":{"num_deleted":"0","num_feature":"10","num_nodes":"101","size_leaf_vector":"0"}},{"base_weights":[-5.0956167E-2,-5.073165E-1,7.504462E-2,-2.1498753E-1,-7.578307E-1,7.0430434E-1,1.6911233E-2,-1.3360924E-1,-9.7401804E-1,-9.756944E-1,-5.5939764E-1,-1.4803151E-2,9.8778397E-1,5.616794E-1,-2.6505545E-2,-7.385244E-2,-3.0041203E-1,-3.0554223E-1,2.9135182E-1,-6.426383E-1,-3.008014E-1,-2.9778525E-1,-3.062142E-1,1.1774207E-1,-1.6833371E0,9.9696606E-1,-1.2635487E0,2.8883073E-1,8.7365687E-1,-1.3268579E0,2.8179929E-2,6.8239325E-1,-1.519944E-1,-2.9988638E-1,8.8936955E-1,-3.0937207E-1,6.344588E-2,-1.4983277E-1,5.899213E-1,-2.0548983E0,3.8197663E-1,9.9795294E-1,-2.8649512E-1,-1.8728266E0,1.4719498E-1,7.2540313E-1,-3.4578128E0,8.894299E-1,-2.849E-1,-5.562053E-2,-1.6099564E0,3.5860804E-1,-8.293869E-2,2.3422623E0,-1.0466036E-1,5.7042304E-2,-1.276392E-1,3.005322E-1,-2.7704984E-1,1.1132881E-1,-3.0621806E-1,3.7587301E-3,-5.8800906E-1,3.029368E-1,-2.2381924E-1,-6.2878543E-1,-2.484493E-1,-7.0863557E-1,2.0490411E-1,2.5887668E-1,3.000367E-1,-3.2560223E-1,-7.0571196E-1,5.372199E-2,2.4583645E-1,-3.836042E-1,-2.0735698E0,2.6871073E-1,-8.7238187E-1,-5.334105E-1,3.040097E-1,-3.1790373E-1,-5.9287345E-1,4.8170123E-2,2.5549802E-1,-4.469841E-1,1.9093068E-2],"categories":[],"categories_nodes":[],"categories_segments":[],"categories_sizes":[],"default_left":[0,0,0,0,0,0,0,0,0,0,0,0,0,0,0,0,0,0,0,0,0,0,0,0,0,0,0,0,0,0,0,0,0,0,0,0,0,0,0,0,0,0,0,0,0,0,0,0,0,0,0,0,0,0,0,0,0,0,0,0,0,0,0,0,0,0,0,0,0,0,0,0,0,0,0,0,0,0,0,0,0,0,0,0,0,0,0],"id":18,"left_children":[1,3,5,7,9,11,13,15,17,19,21,23,25,27,29,31,-1,-1,-1,33,-1,35,-1,37,39,41,43,45,47,49,51,53,55,-1,57,-1,59,61,63,65,67,69,-1,71,-1,73,75,77,-1,79,81,83,85,-1,-1,-1,-1,-1,-1,-1,-1,-1,-1,-1,-1,-1,-1,-1,-1,-1,-1,-1,-1,-1,-1,-1,-1,-1,-1,-1,-1,-1,-1,-1,-1,-1,-1],